tree
version=v4
num_class=1
num_tree_per_iteration=1
label_index=0
max_feature_idx=5202
objective=regression
feature_names=cat1 cat2 cat3 cat4 cat5 cat6 cat7 cat8 cat9 cat10 cat11 cat12 cat13 cat14 cat15 cat16 cat17 cat18 cat19 cat20 cat21 cat22 cat23 cat24 cat25 cat26 cat27 cat28 cat29 cat30 cat31 cat32 cat33 cat34 cat35 cat36 cat37 cat38 cat39 cat40 cat41 cat42 cat43 cat44 cat45 cat46 cat47 cat48 cat49 cat50 cat51 cat52 cat53 cat54 cat55 cat56 cat57 cat58 cat59 cat60 cat61 cat62 cat63 cat64 cat65 cat66 cat67 cat68 cat69 cat70 cat71 cat72 cat73 cat74 cat75 cat76 cat77 cat78 cat79 cat80 cat81 cat82 cat83 cat84 cat85 cat86 cat87 cat88 cat89 cat90 cat91 cat92 cat93 cat94 cat95 cat96 cat97 cat98 cat99 cat100 cat101 cat102 cat103 cat104 cat105 cat106 cat107 cat108 cat109 cat110 cat111 cat112 cat113 cat114 cat115 cat116 cont1 cont2 cont3 cont4 cont5 cont6 cont7 cont8 cont9 cont10 cont11 cont12 cont13 cont14 cat1_freq cat1_log_freq cat1_norm_freq cat1_0.0 cat1_1.0 cat2_0.0 cat2_1.0 cat3_0.0 cat3_1.0 cat4_0.0 cat4_1.0 cat5_0.0 cat5_1.0 cat6_0.0 cat6_1.0 cat7_0.0 cat7_1.0 cat8_0.0 cat8_1.0 cat9_0.0 cat9_1.0 cat10_0.0 cat10_1.0 cat11_0.0 cat11_1.0 cat12_0.0 cat12_1.0 cat13_0.0 cat13_1.0 cat14_0.0 cat14_1.0 cat15_0.0 cat15_1.0 cat16_0.0 cat16_1.0 cat17_0.0 cat17_1.0 cat18_0.0 cat18_1.0 cat19_0.0 cat19_1.0 cat20_0.0 cat20_1.0 cat21_0.0 cat21_1.0 cat22_0.0 cat22_1.0 cat23_0.0 cat23_1.0 cat24_0.0 cat24_1.0 cat25_0.0 cat25_1.0 cat26_0.0 cat26_1.0 cat27_0.0 cat27_1.0 cat28_0.0 cat28_1.0 cat29_0.0 cat29_1.0 cat30_0.0 cat30_1.0 cat31_0.0 cat31_1.0 cat32_0.0 cat32_1.0 cat33_0.0 cat33_1.0 cat34_0.0 cat34_1.0 cat35_0.0 cat35_1.0 cat36_0.0 cat36_1.0 cat37_0.0 cat37_1.0 cat38_0.0 cat38_1.0 cat39_0.0 cat39_1.0 cat40_0.0 cat40_1.0 cat41_0.0 cat41_1.0 cat42_0.0 cat42_1.0 cat43_0.0 cat43_1.0 cat44_0.0 cat44_1.0 cat45_0.0 cat45_1.0 cat46_0.0 cat46_1.0 cat47_0.0 cat47_1.0 cat48_0.0 cat48_1.0 cat49_0.0 cat49_1.0 cat50_0.0 cat50_1.0 cat51_0.0 cat51_1.0 cat52_0.0 cat52_1.0 cat53_0.0 cat53_1.0 cat54_0.0 cat54_1.0 cat55_0.0 cat55_1.0 cat56_0.0 cat56_1.0 cat57_0.0 cat57_1.0 cat58_0.0 cat58_1.0 cat59_0.0 cat59_1.0 cat60_0.0 cat60_1.0 cat61_0.0 cat61_1.0 cat62_0.0 cat62_1.0 cat63_0.0 cat63_1.0 cat64_0.0 cat64_1.0 cat65_0.0 cat65_1.0 cat66_0.0 cat66_1.0 cat67_0.0 cat67_1.0 cat68_0.0 cat68_1.0 cat69_0.0 cat69_1.0 cat70_0.0 cat70_1.0 cat71_0.0 cat71_1.0 cat72_0.0 cat72_1.0 cat73_0.0 cat73_1.0 cat73_2.0 cat74_0.0 cat74_1.0 cat74_2.0 cat75_0.0 cat75_1.0 cat75_2.0 cat76_0.0 cat76_1.0 cat76_2.0 cat1_cont1_mean cat1_cont1_med cat1_cont1_std cat1_cont2_mean cat1_cont2_med cat1_cont2_std cat1_cont3_mean cat1_cont3_med cat1_cont3_std cat1_cont4_mean cat1_cont4_med cat1_cont4_std cat1_cont5_mean cat1_cont5_med cat1_cont5_std cat1_cont6_mean cat1_cont6_med cat1_cont6_std cat1_cont7_mean cat1_cont7_med cat1_cont7_std cat1_cont8_mean cat1_cont8_med cat1_cont8_std cat1_cont9_mean cat1_cont9_med cat1_cont9_std cat1_cont10_mean cat1_cont10_med cat1_cont10_std cat1_cont11_mean cat1_cont11_med cat1_cont11_std cat1_cont12_mean cat1_cont12_med cat1_cont12_std cat1_cont13_mean cat1_cont13_med cat1_cont13_std cat1_cont14_mean cat1_cont14_med cat1_cont14_std cat2_cont1_mean cat2_cont1_med cat2_cont1_std cat2_cont2_mean cat2_cont2_med cat2_cont2_std cat2_cont3_mean cat2_cont3_med cat2_cont3_std cat2_cont4_mean cat2_cont4_med cat2_cont4_std cat2_cont5_mean cat2_cont5_med cat2_cont5_std cat2_cont6_mean cat2_cont6_med cat2_cont6_std cat2_cont7_mean cat2_cont7_med cat2_cont7_std cat2_cont8_mean cat2_cont8_med cat2_cont8_std cat2_cont9_mean cat2_cont9_med cat2_cont9_std cat2_cont10_mean cat2_cont10_med cat2_cont10_std cat2_cont11_mean cat2_cont11_med cat2_cont11_std cat2_cont12_mean cat2_cont12_med cat2_cont12_std cat2_cont13_mean cat2_cont13_med cat2_cont13_std cat2_cont14_mean cat2_cont14_med cat2_cont14_std cat3_cont1_mean cat3_cont1_med cat3_cont1_std cat3_cont2_mean cat3_cont2_med cat3_cont2_std cat3_cont3_mean cat3_cont3_med cat3_cont3_std cat3_cont4_mean cat3_cont4_med cat3_cont4_std cat3_cont5_mean cat3_cont5_med cat3_cont5_std cat3_cont6_mean cat3_cont6_med cat3_cont6_std cat3_cont7_mean cat3_cont7_med cat3_cont7_std cat3_cont8_mean cat3_cont8_med cat3_cont8_std cat3_cont9_mean cat3_cont9_med cat3_cont9_std cat3_cont10_mean cat3_cont10_med cat3_cont10_std cat3_cont11_mean cat3_cont11_med cat3_cont11_std cat3_cont12_mean cat3_cont12_med cat3_cont12_std cat3_cont13_mean cat3_cont13_med cat3_cont13_std cat3_cont14_mean cat3_cont14_med cat3_cont14_std cat4_cont1_mean cat4_cont1_med cat4_cont1_std cat4_cont2_mean cat4_cont2_med cat4_cont2_std cat4_cont3_mean cat4_cont3_med cat4_cont3_std cat4_cont4_mean cat4_cont4_med cat4_cont4_std cat4_cont5_mean cat4_cont5_med cat4_cont5_std cat4_cont6_mean cat4_cont6_med cat4_cont6_std cat4_cont7_mean cat4_cont7_med cat4_cont7_std cat4_cont8_mean cat4_cont8_med cat4_cont8_std cat4_cont9_mean cat4_cont9_med cat4_cont9_std cat4_cont10_mean cat4_cont10_med cat4_cont10_std cat4_cont11_mean cat4_cont11_med cat4_cont11_std cat4_cont12_mean cat4_cont12_med cat4_cont12_std cat4_cont13_mean cat4_cont13_med cat4_cont13_std cat4_cont14_mean cat4_cont14_med cat4_cont14_std cat5_cont1_mean cat5_cont1_med cat5_cont1_std cat5_cont2_mean cat5_cont2_med cat5_cont2_std cat5_cont3_mean cat5_cont3_med cat5_cont3_std cat5_cont4_mean cat5_cont4_med cat5_cont4_std cat5_cont5_mean cat5_cont5_med cat5_cont5_std cat5_cont6_mean cat5_cont6_med cat5_cont6_std cat5_cont7_mean cat5_cont7_med cat5_cont7_std cat5_cont8_mean cat5_cont8_med cat5_cont8_std cat5_cont9_mean cat5_cont9_med cat5_cont9_std cat5_cont10_mean cat5_cont10_med cat5_cont10_std cat5_cont11_mean cat5_cont11_med cat5_cont11_std cat5_cont12_mean cat5_cont12_med cat5_cont12_std cat5_cont13_mean cat5_cont13_med cat5_cont13_std cat5_cont14_mean cat5_cont14_med cat5_cont14_std cat6_cont1_mean cat6_cont1_med cat6_cont1_std cat6_cont2_mean cat6_cont2_med cat6_cont2_std cat6_cont3_mean cat6_cont3_med cat6_cont3_std cat6_cont4_mean cat6_cont4_med cat6_cont4_std cat6_cont5_mean cat6_cont5_med cat6_cont5_std cat6_cont6_mean cat6_cont6_med cat6_cont6_std cat6_cont7_mean cat6_cont7_med cat6_cont7_std cat6_cont8_mean cat6_cont8_med cat6_cont8_std cat6_cont9_mean cat6_cont9_med cat6_cont9_std cat6_cont10_mean cat6_cont10_med cat6_cont10_std cat6_cont11_mean cat6_cont11_med cat6_cont11_std cat6_cont12_mean cat6_cont12_med cat6_cont12_std cat6_cont13_mean cat6_cont13_med cat6_cont13_std cat6_cont14_mean cat6_cont14_med cat6_cont14_std cat7_cont1_mean cat7_cont1_med cat7_cont1_std cat7_cont2_mean cat7_cont2_med cat7_cont2_std cat7_cont3_mean cat7_cont3_med cat7_cont3_std cat7_cont4_mean cat7_cont4_med cat7_cont4_std cat7_cont5_mean cat7_cont5_med cat7_cont5_std cat7_cont6_mean cat7_cont6_med cat7_cont6_std cat7_cont7_mean cat7_cont7_med cat7_cont7_std cat7_cont8_mean cat7_cont8_med cat7_cont8_std cat7_cont9_mean cat7_cont9_med cat7_cont9_std cat7_cont10_mean cat7_cont10_med cat7_cont10_std cat7_cont11_mean cat7_cont11_med cat7_cont11_std cat7_cont12_mean cat7_cont12_med cat7_cont12_std cat7_cont13_mean cat7_cont13_med cat7_cont13_std cat7_cont14_mean cat7_cont14_med cat7_cont14_std cat8_cont1_mean cat8_cont1_med cat8_cont1_std cat8_cont2_mean cat8_cont2_med cat8_cont2_std cat8_cont3_mean cat8_cont3_med cat8_cont3_std cat8_cont4_mean cat8_cont4_med cat8_cont4_std cat8_cont5_mean cat8_cont5_med cat8_cont5_std cat8_cont6_mean cat8_cont6_med cat8_cont6_std cat8_cont7_mean cat8_cont7_med cat8_cont7_std cat8_cont8_mean cat8_cont8_med cat8_cont8_std cat8_cont9_mean cat8_cont9_med cat8_cont9_std cat8_cont10_mean cat8_cont10_med cat8_cont10_std cat8_cont11_mean cat8_cont11_med cat8_cont11_std cat8_cont12_mean cat8_cont12_med cat8_cont12_std cat8_cont13_mean cat8_cont13_med cat8_cont13_std cat8_cont14_mean cat8_cont14_med cat8_cont14_std cat9_cont1_mean cat9_cont1_med cat9_cont1_std cat9_cont2_mean cat9_cont2_med cat9_cont2_std cat9_cont3_mean cat9_cont3_med cat9_cont3_std cat9_cont4_mean cat9_cont4_med cat9_cont4_std cat9_cont5_mean cat9_cont5_med cat9_cont5_std cat9_cont6_mean cat9_cont6_med cat9_cont6_std cat9_cont7_mean cat9_cont7_med cat9_cont7_std cat9_cont8_mean cat9_cont8_med cat9_cont8_std cat9_cont9_mean cat9_cont9_med cat9_cont9_std cat9_cont10_mean cat9_cont10_med cat9_cont10_std cat9_cont11_mean cat9_cont11_med cat9_cont11_std cat9_cont12_mean cat9_cont12_med cat9_cont12_std cat9_cont13_mean cat9_cont13_med cat9_cont13_std cat9_cont14_mean cat9_cont14_med cat9_cont14_std cat10_cont1_mean cat10_cont1_med cat10_cont1_std cat10_cont2_mean cat10_cont2_med cat10_cont2_std cat10_cont3_mean cat10_cont3_med cat10_cont3_std cat10_cont4_mean cat10_cont4_med cat10_cont4_std cat10_cont5_mean cat10_cont5_med cat10_cont5_std cat10_cont6_mean cat10_cont6_med cat10_cont6_std cat10_cont7_mean cat10_cont7_med cat10_cont7_std cat10_cont8_mean cat10_cont8_med cat10_cont8_std cat10_cont9_mean cat10_cont9_med cat10_cont9_std cat10_cont10_mean cat10_cont10_med cat10_cont10_std cat10_cont11_mean cat10_cont11_med cat10_cont11_std cat10_cont12_mean cat10_cont12_med cat10_cont12_std cat10_cont13_mean cat10_cont13_med cat10_cont13_std cat10_cont14_mean cat10_cont14_med cat10_cont14_std cat11_cont1_mean cat11_cont1_med cat11_cont1_std cat11_cont2_mean cat11_cont2_med cat11_cont2_std cat11_cont3_mean cat11_cont3_med cat11_cont3_std cat11_cont4_mean cat11_cont4_med cat11_cont4_std cat11_cont5_mean cat11_cont5_med cat11_cont5_std cat11_cont6_mean cat11_cont6_med cat11_cont6_std cat11_cont7_mean cat11_cont7_med cat11_cont7_std cat11_cont8_mean cat11_cont8_med cat11_cont8_std cat11_cont9_mean cat11_cont9_med cat11_cont9_std cat11_cont10_mean cat11_cont10_med cat11_cont10_std cat11_cont11_mean cat11_cont11_med cat11_cont11_std cat11_cont12_mean cat11_cont12_med cat11_cont12_std cat11_cont13_mean cat11_cont13_med cat11_cont13_std cat11_cont14_mean cat11_cont14_med cat11_cont14_std cat12_cont1_mean cat12_cont1_med cat12_cont1_std cat12_cont2_mean cat12_cont2_med cat12_cont2_std cat12_cont3_mean cat12_cont3_med cat12_cont3_std cat12_cont4_mean cat12_cont4_med cat12_cont4_std cat12_cont5_mean cat12_cont5_med cat12_cont5_std cat12_cont6_mean cat12_cont6_med cat12_cont6_std cat12_cont7_mean cat12_cont7_med cat12_cont7_std cat12_cont8_mean cat12_cont8_med cat12_cont8_std cat12_cont9_mean cat12_cont9_med cat12_cont9_std cat12_cont10_mean cat12_cont10_med cat12_cont10_std cat12_cont11_mean cat12_cont11_med cat12_cont11_std cat12_cont12_mean cat12_cont12_med cat12_cont12_std cat12_cont13_mean cat12_cont13_med cat12_cont13_std cat12_cont14_mean cat12_cont14_med cat12_cont14_std cat13_cont1_mean cat13_cont1_med cat13_cont1_std cat13_cont2_mean cat13_cont2_med cat13_cont2_std cat13_cont3_mean cat13_cont3_med cat13_cont3_std cat13_cont4_mean cat13_cont4_med cat13_cont4_std cat13_cont5_mean cat13_cont5_med cat13_cont5_std cat13_cont6_mean cat13_cont6_med cat13_cont6_std cat13_cont7_mean cat13_cont7_med cat13_cont7_std cat13_cont8_mean cat13_cont8_med cat13_cont8_std cat13_cont9_mean cat13_cont9_med cat13_cont9_std cat13_cont10_mean cat13_cont10_med cat13_cont10_std cat13_cont11_mean cat13_cont11_med cat13_cont11_std cat13_cont12_mean cat13_cont12_med cat13_cont12_std cat13_cont13_mean cat13_cont13_med cat13_cont13_std cat13_cont14_mean cat13_cont14_med cat13_cont14_std cat14_cont1_mean cat14_cont1_med cat14_cont1_std cat14_cont2_mean cat14_cont2_med cat14_cont2_std cat14_cont3_mean cat14_cont3_med cat14_cont3_std cat14_cont4_mean cat14_cont4_med cat14_cont4_std cat14_cont5_mean cat14_cont5_med cat14_cont5_std cat14_cont6_mean cat14_cont6_med cat14_cont6_std cat14_cont7_mean cat14_cont7_med cat14_cont7_std cat14_cont8_mean cat14_cont8_med cat14_cont8_std cat14_cont9_mean cat14_cont9_med cat14_cont9_std cat14_cont10_mean cat14_cont10_med cat14_cont10_std cat14_cont11_mean cat14_cont11_med cat14_cont11_std cat14_cont12_mean cat14_cont12_med cat14_cont12_std cat14_cont13_mean cat14_cont13_med cat14_cont13_std cat14_cont14_mean cat14_cont14_med cat14_cont14_std cat15_cont1_mean cat15_cont1_med cat15_cont1_std cat15_cont2_mean cat15_cont2_med cat15_cont2_std cat15_cont3_mean cat15_cont3_med cat15_cont3_std cat15_cont4_mean cat15_cont4_med cat15_cont4_std cat15_cont5_mean cat15_cont5_med cat15_cont5_std cat15_cont6_mean cat15_cont6_med cat15_cont6_std cat15_cont7_mean cat15_cont7_med cat15_cont7_std cat15_cont8_mean cat15_cont8_med cat15_cont8_std cat15_cont9_mean cat15_cont9_med cat15_cont9_std cat15_cont10_mean cat15_cont10_med cat15_cont10_std cat15_cont11_mean cat15_cont11_med cat15_cont11_std cat15_cont12_mean cat15_cont12_med cat15_cont12_std cat15_cont13_mean cat15_cont13_med cat15_cont13_std cat15_cont14_mean cat15_cont14_med cat15_cont14_std cat16_cont1_mean cat16_cont1_med cat16_cont1_std cat16_cont2_mean cat16_cont2_med cat16_cont2_std cat16_cont3_mean cat16_cont3_med cat16_cont3_std cat16_cont4_mean cat16_cont4_med cat16_cont4_std cat16_cont5_mean cat16_cont5_med cat16_cont5_std cat16_cont6_mean cat16_cont6_med cat16_cont6_std cat16_cont7_mean cat16_cont7_med cat16_cont7_std cat16_cont8_mean cat16_cont8_med cat16_cont8_std cat16_cont9_mean cat16_cont9_med cat16_cont9_std cat16_cont10_mean cat16_cont10_med cat16_cont10_std cat16_cont11_mean cat16_cont11_med cat16_cont11_std cat16_cont12_mean cat16_cont12_med cat16_cont12_std cat16_cont13_mean cat16_cont13_med cat16_cont13_std cat16_cont14_mean cat16_cont14_med cat16_cont14_std cat17_cont1_mean cat17_cont1_med cat17_cont1_std cat17_cont2_mean cat17_cont2_med cat17_cont2_std cat17_cont3_mean cat17_cont3_med cat17_cont3_std cat17_cont4_mean cat17_cont4_med cat17_cont4_std cat17_cont5_mean cat17_cont5_med cat17_cont5_std cat17_cont6_mean cat17_cont6_med cat17_cont6_std cat17_cont7_mean cat17_cont7_med cat17_cont7_std cat17_cont8_mean cat17_cont8_med cat17_cont8_std cat17_cont9_mean cat17_cont9_med cat17_cont9_std cat17_cont10_mean cat17_cont10_med cat17_cont10_std cat17_cont11_mean cat17_cont11_med cat17_cont11_std cat17_cont12_mean cat17_cont12_med cat17_cont12_std cat17_cont13_mean cat17_cont13_med cat17_cont13_std cat17_cont14_mean cat17_cont14_med cat17_cont14_std cat18_cont1_mean cat18_cont1_med cat18_cont1_std cat18_cont2_mean cat18_cont2_med cat18_cont2_std cat18_cont3_mean cat18_cont3_med cat18_cont3_std cat18_cont4_mean cat18_cont4_med cat18_cont4_std cat18_cont5_mean cat18_cont5_med cat18_cont5_std cat18_cont6_mean cat18_cont6_med cat18_cont6_std cat18_cont7_mean cat18_cont7_med cat18_cont7_std cat18_cont8_mean cat18_cont8_med cat18_cont8_std cat18_cont9_mean cat18_cont9_med cat18_cont9_std cat18_cont10_mean cat18_cont10_med cat18_cont10_std cat18_cont11_mean cat18_cont11_med cat18_cont11_std cat18_cont12_mean cat18_cont12_med cat18_cont12_std cat18_cont13_mean cat18_cont13_med cat18_cont13_std cat18_cont14_mean cat18_cont14_med cat18_cont14_std cat19_cont1_mean cat19_cont1_med cat19_cont1_std cat19_cont2_mean cat19_cont2_med cat19_cont2_std cat19_cont3_mean cat19_cont3_med cat19_cont3_std cat19_cont4_mean cat19_cont4_med cat19_cont4_std cat19_cont5_mean cat19_cont5_med cat19_cont5_std cat19_cont6_mean cat19_cont6_med cat19_cont6_std cat19_cont7_mean cat19_cont7_med cat19_cont7_std cat19_cont8_mean cat19_cont8_med cat19_cont8_std cat19_cont9_mean cat19_cont9_med cat19_cont9_std cat19_cont10_mean cat19_cont10_med cat19_cont10_std cat19_cont11_mean cat19_cont11_med cat19_cont11_std cat19_cont12_mean cat19_cont12_med cat19_cont12_std cat19_cont13_mean cat19_cont13_med cat19_cont13_std cat19_cont14_mean cat19_cont14_med cat19_cont14_std cat20_cont1_mean cat20_cont1_med cat20_cont1_std cat20_cont2_mean cat20_cont2_med cat20_cont2_std cat20_cont3_mean cat20_cont3_med cat20_cont3_std cat20_cont4_mean cat20_cont4_med cat20_cont4_std cat20_cont5_mean cat20_cont5_med cat20_cont5_std cat20_cont6_mean cat20_cont6_med cat20_cont6_std cat20_cont7_mean cat20_cont7_med cat20_cont7_std cat20_cont8_mean cat20_cont8_med cat20_cont8_std cat20_cont9_mean cat20_cont9_med cat20_cont9_std cat20_cont10_mean cat20_cont10_med cat20_cont10_std cat20_cont11_mean cat20_cont11_med cat20_cont11_std cat20_cont12_mean cat20_cont12_med cat20_cont12_std cat20_cont13_mean cat20_cont13_med cat20_cont13_std cat20_cont14_mean cat20_cont14_med cat20_cont14_std cat21_cont1_mean cat21_cont1_med cat21_cont1_std cat21_cont2_mean cat21_cont2_med cat21_cont2_std cat21_cont3_mean cat21_cont3_med cat21_cont3_std cat21_cont4_mean cat21_cont4_med cat21_cont4_std cat21_cont5_mean cat21_cont5_med cat21_cont5_std cat21_cont6_mean cat21_cont6_med cat21_cont6_std cat21_cont7_mean cat21_cont7_med cat21_cont7_std cat21_cont8_mean cat21_cont8_med cat21_cont8_std cat21_cont9_mean cat21_cont9_med cat21_cont9_std cat21_cont10_mean cat21_cont10_med cat21_cont10_std cat21_cont11_mean cat21_cont11_med cat21_cont11_std cat21_cont12_mean cat21_cont12_med cat21_cont12_std cat21_cont13_mean cat21_cont13_med cat21_cont13_std cat21_cont14_mean cat21_cont14_med cat21_cont14_std cat22_cont1_mean cat22_cont1_med cat22_cont1_std cat22_cont2_mean cat22_cont2_med cat22_cont2_std cat22_cont3_mean cat22_cont3_med cat22_cont3_std cat22_cont4_mean cat22_cont4_med cat22_cont4_std cat22_cont5_mean cat22_cont5_med cat22_cont5_std cat22_cont6_mean cat22_cont6_med cat22_cont6_std cat22_cont7_mean cat22_cont7_med cat22_cont7_std cat22_cont8_mean cat22_cont8_med cat22_cont8_std cat22_cont9_mean cat22_cont9_med cat22_cont9_std cat22_cont10_mean cat22_cont10_med cat22_cont10_std cat22_cont11_mean cat22_cont11_med cat22_cont11_std cat22_cont12_mean cat22_cont12_med cat22_cont12_std cat22_cont13_mean cat22_cont13_med cat22_cont13_std cat22_cont14_mean cat22_cont14_med cat22_cont14_std cat23_cont1_mean cat23_cont1_med cat23_cont1_std cat23_cont2_mean cat23_cont2_med cat23_cont2_std cat23_cont3_mean cat23_cont3_med cat23_cont3_std cat23_cont4_mean cat23_cont4_med cat23_cont4_std cat23_cont5_mean cat23_cont5_med cat23_cont5_std cat23_cont6_mean cat23_cont6_med cat23_cont6_std cat23_cont7_mean cat23_cont7_med cat23_cont7_std cat23_cont8_mean cat23_cont8_med cat23_cont8_std cat23_cont9_mean cat23_cont9_med cat23_cont9_std cat23_cont10_mean cat23_cont10_med cat23_cont10_std cat23_cont11_mean cat23_cont11_med cat23_cont11_std cat23_cont12_mean cat23_cont12_med cat23_cont12_std cat23_cont13_mean cat23_cont13_med cat23_cont13_std cat23_cont14_mean cat23_cont14_med cat23_cont14_std cat24_cont1_mean cat24_cont1_med cat24_cont1_std cat24_cont2_mean cat24_cont2_med cat24_cont2_std cat24_cont3_mean cat24_cont3_med cat24_cont3_std cat24_cont4_mean cat24_cont4_med cat24_cont4_std cat24_cont5_mean cat24_cont5_med cat24_cont5_std cat24_cont6_mean cat24_cont6_med cat24_cont6_std cat24_cont7_mean cat24_cont7_med cat24_cont7_std cat24_cont8_mean cat24_cont8_med cat24_cont8_std cat24_cont9_mean cat24_cont9_med cat24_cont9_std cat24_cont10_mean cat24_cont10_med cat24_cont10_std cat24_cont11_mean cat24_cont11_med cat24_cont11_std cat24_cont12_mean cat24_cont12_med cat24_cont12_std cat24_cont13_mean cat24_cont13_med cat24_cont13_std cat24_cont14_mean cat24_cont14_med cat24_cont14_std cat25_cont1_mean cat25_cont1_med cat25_cont1_std cat25_cont2_mean cat25_cont2_med cat25_cont2_std cat25_cont3_mean cat25_cont3_med cat25_cont3_std cat25_cont4_mean cat25_cont4_med cat25_cont4_std cat25_cont5_mean cat25_cont5_med cat25_cont5_std cat25_cont6_mean cat25_cont6_med cat25_cont6_std cat25_cont7_mean cat25_cont7_med cat25_cont7_std cat25_cont8_mean cat25_cont8_med cat25_cont8_std cat25_cont9_mean cat25_cont9_med cat25_cont9_std cat25_cont10_mean cat25_cont10_med cat25_cont10_std cat25_cont11_mean cat25_cont11_med cat25_cont11_std cat25_cont12_mean cat25_cont12_med cat25_cont12_std cat25_cont13_mean cat25_cont13_med cat25_cont13_std cat25_cont14_mean cat25_cont14_med cat25_cont14_std cat26_cont1_mean cat26_cont1_med cat26_cont1_std cat26_cont2_mean cat26_cont2_med cat26_cont2_std cat26_cont3_mean cat26_cont3_med cat26_cont3_std cat26_cont4_mean cat26_cont4_med cat26_cont4_std cat26_cont5_mean cat26_cont5_med cat26_cont5_std cat26_cont6_mean cat26_cont6_med cat26_cont6_std cat26_cont7_mean cat26_cont7_med cat26_cont7_std cat26_cont8_mean cat26_cont8_med cat26_cont8_std cat26_cont9_mean cat26_cont9_med cat26_cont9_std cat26_cont10_mean cat26_cont10_med cat26_cont10_std cat26_cont11_mean cat26_cont11_med cat26_cont11_std cat26_cont12_mean cat26_cont12_med cat26_cont12_std cat26_cont13_mean cat26_cont13_med cat26_cont13_std cat26_cont14_mean cat26_cont14_med cat26_cont14_std cat27_cont1_mean cat27_cont1_med cat27_cont1_std cat27_cont2_mean cat27_cont2_med cat27_cont2_std cat27_cont3_mean cat27_cont3_med cat27_cont3_std cat27_cont4_mean cat27_cont4_med cat27_cont4_std cat27_cont5_mean cat27_cont5_med cat27_cont5_std cat27_cont6_mean cat27_cont6_med cat27_cont6_std cat27_cont7_mean cat27_cont7_med cat27_cont7_std cat27_cont8_mean cat27_cont8_med cat27_cont8_std cat27_cont9_mean cat27_cont9_med cat27_cont9_std cat27_cont10_mean cat27_cont10_med cat27_cont10_std cat27_cont11_mean cat27_cont11_med cat27_cont11_std cat27_cont12_mean cat27_cont12_med cat27_cont12_std cat27_cont13_mean cat27_cont13_med cat27_cont13_std cat27_cont14_mean cat27_cont14_med cat27_cont14_std cat28_cont1_mean cat28_cont1_med cat28_cont1_std cat28_cont2_mean cat28_cont2_med cat28_cont2_std cat28_cont3_mean cat28_cont3_med cat28_cont3_std cat28_cont4_mean cat28_cont4_med cat28_cont4_std cat28_cont5_mean cat28_cont5_med cat28_cont5_std cat28_cont6_mean cat28_cont6_med cat28_cont6_std cat28_cont7_mean cat28_cont7_med cat28_cont7_std cat28_cont8_mean cat28_cont8_med cat28_cont8_std cat28_cont9_mean cat28_cont9_med cat28_cont9_std cat28_cont10_mean cat28_cont10_med cat28_cont10_std cat28_cont11_mean cat28_cont11_med cat28_cont11_std cat28_cont12_mean cat28_cont12_med cat28_cont12_std cat28_cont13_mean cat28_cont13_med cat28_cont13_std cat28_cont14_mean cat28_cont14_med cat28_cont14_std cat29_cont1_mean cat29_cont1_med cat29_cont1_std cat29_cont2_mean cat29_cont2_med cat29_cont2_std cat29_cont3_mean cat29_cont3_med cat29_cont3_std cat29_cont4_mean cat29_cont4_med cat29_cont4_std cat29_cont5_mean cat29_cont5_med cat29_cont5_std cat29_cont6_mean cat29_cont6_med cat29_cont6_std cat29_cont7_mean cat29_cont7_med cat29_cont7_std cat29_cont8_mean cat29_cont8_med cat29_cont8_std cat29_cont9_mean cat29_cont9_med cat29_cont9_std cat29_cont10_mean cat29_cont10_med cat29_cont10_std cat29_cont11_mean cat29_cont11_med cat29_cont11_std cat29_cont12_mean cat29_cont12_med cat29_cont12_std cat29_cont13_mean cat29_cont13_med cat29_cont13_std cat29_cont14_mean cat29_cont14_med cat29_cont14_std cat30_cont1_mean cat30_cont1_med cat30_cont1_std cat30_cont2_mean cat30_cont2_med cat30_cont2_std cat30_cont3_mean cat30_cont3_med cat30_cont3_std cat30_cont4_mean cat30_cont4_med cat30_cont4_std cat30_cont5_mean cat30_cont5_med cat30_cont5_std cat30_cont6_mean cat30_cont6_med cat30_cont6_std cat30_cont7_mean cat30_cont7_med cat30_cont7_std cat30_cont8_mean cat30_cont8_med cat30_cont8_std cat30_cont9_mean cat30_cont9_med cat30_cont9_std cat30_cont10_mean cat30_cont10_med cat30_cont10_std cat30_cont11_mean cat30_cont11_med cat30_cont11_std cat30_cont12_mean cat30_cont12_med cat30_cont12_std cat30_cont13_mean cat30_cont13_med cat30_cont13_std cat30_cont14_mean cat30_cont14_med cat30_cont14_std cat31_cont1_mean cat31_cont1_med cat31_cont1_std cat31_cont2_mean cat31_cont2_med cat31_cont2_std cat31_cont3_mean cat31_cont3_med cat31_cont3_std cat31_cont4_mean cat31_cont4_med cat31_cont4_std cat31_cont5_mean cat31_cont5_med cat31_cont5_std cat31_cont6_mean cat31_cont6_med cat31_cont6_std cat31_cont7_mean cat31_cont7_med cat31_cont7_std cat31_cont8_mean cat31_cont8_med cat31_cont8_std cat31_cont9_mean cat31_cont9_med cat31_cont9_std cat31_cont10_mean cat31_cont10_med cat31_cont10_std cat31_cont11_mean cat31_cont11_med cat31_cont11_std cat31_cont12_mean cat31_cont12_med cat31_cont12_std cat31_cont13_mean cat31_cont13_med cat31_cont13_std cat31_cont14_mean cat31_cont14_med cat31_cont14_std cat32_cont1_mean cat32_cont1_med cat32_cont1_std cat32_cont2_mean cat32_cont2_med cat32_cont2_std cat32_cont3_mean cat32_cont3_med cat32_cont3_std cat32_cont4_mean cat32_cont4_med cat32_cont4_std cat32_cont5_mean cat32_cont5_med cat32_cont5_std cat32_cont6_mean cat32_cont6_med cat32_cont6_std cat32_cont7_mean cat32_cont7_med cat32_cont7_std cat32_cont8_mean cat32_cont8_med cat32_cont8_std cat32_cont9_mean cat32_cont9_med cat32_cont9_std cat32_cont10_mean cat32_cont10_med cat32_cont10_std cat32_cont11_mean cat32_cont11_med cat32_cont11_std cat32_cont12_mean cat32_cont12_med cat32_cont12_std cat32_cont13_mean cat32_cont13_med cat32_cont13_std cat32_cont14_mean cat32_cont14_med cat32_cont14_std cat33_cont1_mean cat33_cont1_med cat33_cont1_std cat33_cont2_mean cat33_cont2_med cat33_cont2_std cat33_cont3_mean cat33_cont3_med cat33_cont3_std cat33_cont4_mean cat33_cont4_med cat33_cont4_std cat33_cont5_mean cat33_cont5_med cat33_cont5_std cat33_cont6_mean cat33_cont6_med cat33_cont6_std cat33_cont7_mean cat33_cont7_med cat33_cont7_std cat33_cont8_mean cat33_cont8_med cat33_cont8_std cat33_cont9_mean cat33_cont9_med cat33_cont9_std cat33_cont10_mean cat33_cont10_med cat33_cont10_std cat33_cont11_mean cat33_cont11_med cat33_cont11_std cat33_cont12_mean cat33_cont12_med cat33_cont12_std cat33_cont13_mean cat33_cont13_med cat33_cont13_std cat33_cont14_mean cat33_cont14_med cat33_cont14_std cat34_cont1_mean cat34_cont1_med cat34_cont1_std cat34_cont2_mean cat34_cont2_med cat34_cont2_std cat34_cont3_mean cat34_cont3_med cat34_cont3_std cat34_cont4_mean cat34_cont4_med cat34_cont4_std cat34_cont5_mean cat34_cont5_med cat34_cont5_std cat34_cont6_mean cat34_cont6_med cat34_cont6_std cat34_cont7_mean cat34_cont7_med cat34_cont7_std cat34_cont8_mean cat34_cont8_med cat34_cont8_std cat34_cont9_mean cat34_cont9_med cat34_cont9_std cat34_cont10_mean cat34_cont10_med cat34_cont10_std cat34_cont11_mean cat34_cont11_med cat34_cont11_std cat34_cont12_mean cat34_cont12_med cat34_cont12_std cat34_cont13_mean cat34_cont13_med cat34_cont13_std cat34_cont14_mean cat34_cont14_med cat34_cont14_std cat35_cont1_mean cat35_cont1_med cat35_cont1_std cat35_cont2_mean cat35_cont2_med cat35_cont2_std cat35_cont3_mean cat35_cont3_med cat35_cont3_std cat35_cont4_mean cat35_cont4_med cat35_cont4_std cat35_cont5_mean cat35_cont5_med cat35_cont5_std cat35_cont6_mean cat35_cont6_med cat35_cont6_std cat35_cont7_mean cat35_cont7_med cat35_cont7_std cat35_cont8_mean cat35_cont8_med cat35_cont8_std cat35_cont9_mean cat35_cont9_med cat35_cont9_std cat35_cont10_mean cat35_cont10_med cat35_cont10_std cat35_cont11_mean cat35_cont11_med cat35_cont11_std cat35_cont12_mean cat35_cont12_med cat35_cont12_std cat35_cont13_mean cat35_cont13_med cat35_cont13_std cat35_cont14_mean cat35_cont14_med cat35_cont14_std cat36_cont1_mean cat36_cont1_med cat36_cont1_std cat36_cont2_mean cat36_cont2_med cat36_cont2_std cat36_cont3_mean cat36_cont3_med cat36_cont3_std cat36_cont4_mean cat36_cont4_med cat36_cont4_std cat36_cont5_mean cat36_cont5_med cat36_cont5_std cat36_cont6_mean cat36_cont6_med cat36_cont6_std cat36_cont7_mean cat36_cont7_med cat36_cont7_std cat36_cont8_mean cat36_cont8_med cat36_cont8_std cat36_cont9_mean cat36_cont9_med cat36_cont9_std cat36_cont10_mean cat36_cont10_med cat36_cont10_std cat36_cont11_mean cat36_cont11_med cat36_cont11_std cat36_cont12_mean cat36_cont12_med cat36_cont12_std cat36_cont13_mean cat36_cont13_med cat36_cont13_std cat36_cont14_mean cat36_cont14_med cat36_cont14_std cat37_cont1_mean cat37_cont1_med cat37_cont1_std cat37_cont2_mean cat37_cont2_med cat37_cont2_std cat37_cont3_mean cat37_cont3_med cat37_cont3_std cat37_cont4_mean cat37_cont4_med cat37_cont4_std cat37_cont5_mean cat37_cont5_med cat37_cont5_std cat37_cont6_mean cat37_cont6_med cat37_cont6_std cat37_cont7_mean cat37_cont7_med cat37_cont7_std cat37_cont8_mean cat37_cont8_med cat37_cont8_std cat37_cont9_mean cat37_cont9_med cat37_cont9_std cat37_cont10_mean cat37_cont10_med cat37_cont10_std cat37_cont11_mean cat37_cont11_med cat37_cont11_std cat37_cont12_mean cat37_cont12_med cat37_cont12_std cat37_cont13_mean cat37_cont13_med cat37_cont13_std cat37_cont14_mean cat37_cont14_med cat37_cont14_std cat38_cont1_mean cat38_cont1_med cat38_cont1_std cat38_cont2_mean cat38_cont2_med cat38_cont2_std cat38_cont3_mean cat38_cont3_med cat38_cont3_std cat38_cont4_mean cat38_cont4_med cat38_cont4_std cat38_cont5_mean cat38_cont5_med cat38_cont5_std cat38_cont6_mean cat38_cont6_med cat38_cont6_std cat38_cont7_mean cat38_cont7_med cat38_cont7_std cat38_cont8_mean cat38_cont8_med cat38_cont8_std cat38_cont9_mean cat38_cont9_med cat38_cont9_std cat38_cont10_mean cat38_cont10_med cat38_cont10_std cat38_cont11_mean cat38_cont11_med cat38_cont11_std cat38_cont12_mean cat38_cont12_med cat38_cont12_std cat38_cont13_mean cat38_cont13_med cat38_cont13_std cat38_cont14_mean cat38_cont14_med cat38_cont14_std cat39_cont1_mean cat39_cont1_med cat39_cont1_std cat39_cont2_mean cat39_cont2_med cat39_cont2_std cat39_cont3_mean cat39_cont3_med cat39_cont3_std cat39_cont4_mean cat39_cont4_med cat39_cont4_std cat39_cont5_mean cat39_cont5_med cat39_cont5_std cat39_cont6_mean cat39_cont6_med cat39_cont6_std cat39_cont7_mean cat39_cont7_med cat39_cont7_std cat39_cont8_mean cat39_cont8_med cat39_cont8_std cat39_cont9_mean cat39_cont9_med cat39_cont9_std cat39_cont10_mean cat39_cont10_med cat39_cont10_std cat39_cont11_mean cat39_cont11_med cat39_cont11_std cat39_cont12_mean cat39_cont12_med cat39_cont12_std cat39_cont13_mean cat39_cont13_med cat39_cont13_std cat39_cont14_mean cat39_cont14_med cat39_cont14_std cat40_cont1_mean cat40_cont1_med cat40_cont1_std cat40_cont2_mean cat40_cont2_med cat40_cont2_std cat40_cont3_mean cat40_cont3_med cat40_cont3_std cat40_cont4_mean cat40_cont4_med cat40_cont4_std cat40_cont5_mean cat40_cont5_med cat40_cont5_std cat40_cont6_mean cat40_cont6_med cat40_cont6_std cat40_cont7_mean cat40_cont7_med cat40_cont7_std cat40_cont8_mean cat40_cont8_med cat40_cont8_std cat40_cont9_mean cat40_cont9_med cat40_cont9_std cat40_cont10_mean cat40_cont10_med cat40_cont10_std cat40_cont11_mean cat40_cont11_med cat40_cont11_std cat40_cont12_mean cat40_cont12_med cat40_cont12_std cat40_cont13_mean cat40_cont13_med cat40_cont13_std cat40_cont14_mean cat40_cont14_med cat40_cont14_std cat41_cont1_mean cat41_cont1_med cat41_cont1_std cat41_cont2_mean cat41_cont2_med cat41_cont2_std cat41_cont3_mean cat41_cont3_med cat41_cont3_std cat41_cont4_mean cat41_cont4_med cat41_cont4_std cat41_cont5_mean cat41_cont5_med cat41_cont5_std cat41_cont6_mean cat41_cont6_med cat41_cont6_std cat41_cont7_mean cat41_cont7_med cat41_cont7_std cat41_cont8_mean cat41_cont8_med cat41_cont8_std cat41_cont9_mean cat41_cont9_med cat41_cont9_std cat41_cont10_mean cat41_cont10_med cat41_cont10_std cat41_cont11_mean cat41_cont11_med cat41_cont11_std cat41_cont12_mean cat41_cont12_med cat41_cont12_std cat41_cont13_mean cat41_cont13_med cat41_cont13_std cat41_cont14_mean cat41_cont14_med cat41_cont14_std cat42_cont1_mean cat42_cont1_med cat42_cont1_std cat42_cont2_mean cat42_cont2_med cat42_cont2_std cat42_cont3_mean cat42_cont3_med cat42_cont3_std cat42_cont4_mean cat42_cont4_med cat42_cont4_std cat42_cont5_mean cat42_cont5_med cat42_cont5_std cat42_cont6_mean cat42_cont6_med cat42_cont6_std cat42_cont7_mean cat42_cont7_med cat42_cont7_std cat42_cont8_mean cat42_cont8_med cat42_cont8_std cat42_cont9_mean cat42_cont9_med cat42_cont9_std cat42_cont10_mean cat42_cont10_med cat42_cont10_std cat42_cont11_mean cat42_cont11_med cat42_cont11_std cat42_cont12_mean cat42_cont12_med cat42_cont12_std cat42_cont13_mean cat42_cont13_med cat42_cont13_std cat42_cont14_mean cat42_cont14_med cat42_cont14_std cat43_cont1_mean cat43_cont1_med cat43_cont1_std cat43_cont2_mean cat43_cont2_med cat43_cont2_std cat43_cont3_mean cat43_cont3_med cat43_cont3_std cat43_cont4_mean cat43_cont4_med cat43_cont4_std cat43_cont5_mean cat43_cont5_med cat43_cont5_std cat43_cont6_mean cat43_cont6_med cat43_cont6_std cat43_cont7_mean cat43_cont7_med cat43_cont7_std cat43_cont8_mean cat43_cont8_med cat43_cont8_std cat43_cont9_mean cat43_cont9_med cat43_cont9_std cat43_cont10_mean cat43_cont10_med cat43_cont10_std cat43_cont11_mean cat43_cont11_med cat43_cont11_std cat43_cont12_mean cat43_cont12_med cat43_cont12_std cat43_cont13_mean cat43_cont13_med cat43_cont13_std cat43_cont14_mean cat43_cont14_med cat43_cont14_std cat44_cont1_mean cat44_cont1_med cat44_cont1_std cat44_cont2_mean cat44_cont2_med cat44_cont2_std cat44_cont3_mean cat44_cont3_med cat44_cont3_std cat44_cont4_mean cat44_cont4_med cat44_cont4_std cat44_cont5_mean cat44_cont5_med cat44_cont5_std cat44_cont6_mean cat44_cont6_med cat44_cont6_std cat44_cont7_mean cat44_cont7_med cat44_cont7_std cat44_cont8_mean cat44_cont8_med cat44_cont8_std cat44_cont9_mean cat44_cont9_med cat44_cont9_std cat44_cont10_mean cat44_cont10_med cat44_cont10_std cat44_cont11_mean cat44_cont11_med cat44_cont11_std cat44_cont12_mean cat44_cont12_med cat44_cont12_std cat44_cont13_mean cat44_cont13_med cat44_cont13_std cat44_cont14_mean cat44_cont14_med cat44_cont14_std cat45_cont1_mean cat45_cont1_med cat45_cont1_std cat45_cont2_mean cat45_cont2_med cat45_cont2_std cat45_cont3_mean cat45_cont3_med cat45_cont3_std cat45_cont4_mean cat45_cont4_med cat45_cont4_std cat45_cont5_mean cat45_cont5_med cat45_cont5_std cat45_cont6_mean cat45_cont6_med cat45_cont6_std cat45_cont7_mean cat45_cont7_med cat45_cont7_std cat45_cont8_mean cat45_cont8_med cat45_cont8_std cat45_cont9_mean cat45_cont9_med cat45_cont9_std cat45_cont10_mean cat45_cont10_med cat45_cont10_std cat45_cont11_mean cat45_cont11_med cat45_cont11_std cat45_cont12_mean cat45_cont12_med cat45_cont12_std cat45_cont13_mean cat45_cont13_med cat45_cont13_std cat45_cont14_mean cat45_cont14_med cat45_cont14_std cat46_cont1_mean cat46_cont1_med cat46_cont1_std cat46_cont2_mean cat46_cont2_med cat46_cont2_std cat46_cont3_mean cat46_cont3_med cat46_cont3_std cat46_cont4_mean cat46_cont4_med cat46_cont4_std cat46_cont5_mean cat46_cont5_med cat46_cont5_std cat46_cont6_mean cat46_cont6_med cat46_cont6_std cat46_cont7_mean cat46_cont7_med cat46_cont7_std cat46_cont8_mean cat46_cont8_med cat46_cont8_std cat46_cont9_mean cat46_cont9_med cat46_cont9_std cat46_cont10_mean cat46_cont10_med cat46_cont10_std cat46_cont11_mean cat46_cont11_med cat46_cont11_std cat46_cont12_mean cat46_cont12_med cat46_cont12_std cat46_cont13_mean cat46_cont13_med cat46_cont13_std cat46_cont14_mean cat46_cont14_med cat46_cont14_std cat47_cont1_mean cat47_cont1_med cat47_cont1_std cat47_cont2_mean cat47_cont2_med cat47_cont2_std cat47_cont3_mean cat47_cont3_med cat47_cont3_std cat47_cont4_mean cat47_cont4_med cat47_cont4_std cat47_cont5_mean cat47_cont5_med cat47_cont5_std cat47_cont6_mean cat47_cont6_med cat47_cont6_std cat47_cont7_mean cat47_cont7_med cat47_cont7_std cat47_cont8_mean cat47_cont8_med cat47_cont8_std cat47_cont9_mean cat47_cont9_med cat47_cont9_std cat47_cont10_mean cat47_cont10_med cat47_cont10_std cat47_cont11_mean cat47_cont11_med cat47_cont11_std cat47_cont12_mean cat47_cont12_med cat47_cont12_std cat47_cont13_mean cat47_cont13_med cat47_cont13_std cat47_cont14_mean cat47_cont14_med cat47_cont14_std cat48_cont1_mean cat48_cont1_med cat48_cont1_std cat48_cont2_mean cat48_cont2_med cat48_cont2_std cat48_cont3_mean cat48_cont3_med cat48_cont3_std cat48_cont4_mean cat48_cont4_med cat48_cont4_std cat48_cont5_mean cat48_cont5_med cat48_cont5_std cat48_cont6_mean cat48_cont6_med cat48_cont6_std cat48_cont7_mean cat48_cont7_med cat48_cont7_std cat48_cont8_mean cat48_cont8_med cat48_cont8_std cat48_cont9_mean cat48_cont9_med cat48_cont9_std cat48_cont10_mean cat48_cont10_med cat48_cont10_std cat48_cont11_mean cat48_cont11_med cat48_cont11_std cat48_cont12_mean cat48_cont12_med cat48_cont12_std cat48_cont13_mean cat48_cont13_med cat48_cont13_std cat48_cont14_mean cat48_cont14_med cat48_cont14_std cat49_cont1_mean cat49_cont1_med cat49_cont1_std cat49_cont2_mean cat49_cont2_med cat49_cont2_std cat49_cont3_mean cat49_cont3_med cat49_cont3_std cat49_cont4_mean cat49_cont4_med cat49_cont4_std cat49_cont5_mean cat49_cont5_med cat49_cont5_std cat49_cont6_mean cat49_cont6_med cat49_cont6_std cat49_cont7_mean cat49_cont7_med cat49_cont7_std cat49_cont8_mean cat49_cont8_med cat49_cont8_std cat49_cont9_mean cat49_cont9_med cat49_cont9_std cat49_cont10_mean cat49_cont10_med cat49_cont10_std cat49_cont11_mean cat49_cont11_med cat49_cont11_std cat49_cont12_mean cat49_cont12_med cat49_cont12_std cat49_cont13_mean cat49_cont13_med cat49_cont13_std cat49_cont14_mean cat49_cont14_med cat49_cont14_std cat50_cont1_mean cat50_cont1_med cat50_cont1_std cat50_cont2_mean cat50_cont2_med cat50_cont2_std cat50_cont3_mean cat50_cont3_med cat50_cont3_std cat50_cont4_mean cat50_cont4_med cat50_cont4_std cat50_cont5_mean cat50_cont5_med cat50_cont5_std cat50_cont6_mean cat50_cont6_med cat50_cont6_std cat50_cont7_mean cat50_cont7_med cat50_cont7_std cat50_cont8_mean cat50_cont8_med cat50_cont8_std cat50_cont9_mean cat50_cont9_med cat50_cont9_std cat50_cont10_mean cat50_cont10_med cat50_cont10_std cat50_cont11_mean cat50_cont11_med cat50_cont11_std cat50_cont12_mean cat50_cont12_med cat50_cont12_std cat50_cont13_mean cat50_cont13_med cat50_cont13_std cat50_cont14_mean cat50_cont14_med cat50_cont14_std cat51_cont1_mean cat51_cont1_med cat51_cont1_std cat51_cont2_mean cat51_cont2_med cat51_cont2_std cat51_cont3_mean cat51_cont3_med cat51_cont3_std cat51_cont4_mean cat51_cont4_med cat51_cont4_std cat51_cont5_mean cat51_cont5_med cat51_cont5_std cat51_cont6_mean cat51_cont6_med cat51_cont6_std cat51_cont7_mean cat51_cont7_med cat51_cont7_std cat51_cont8_mean cat51_cont8_med cat51_cont8_std cat51_cont9_mean cat51_cont9_med cat51_cont9_std cat51_cont10_mean cat51_cont10_med cat51_cont10_std cat51_cont11_mean cat51_cont11_med cat51_cont11_std cat51_cont12_mean cat51_cont12_med cat51_cont12_std cat51_cont13_mean cat51_cont13_med cat51_cont13_std cat51_cont14_mean cat51_cont14_med cat51_cont14_std cat52_cont1_mean cat52_cont1_med cat52_cont1_std cat52_cont2_mean cat52_cont2_med cat52_cont2_std cat52_cont3_mean cat52_cont3_med cat52_cont3_std cat52_cont4_mean cat52_cont4_med cat52_cont4_std cat52_cont5_mean cat52_cont5_med cat52_cont5_std cat52_cont6_mean cat52_cont6_med cat52_cont6_std cat52_cont7_mean cat52_cont7_med cat52_cont7_std cat52_cont8_mean cat52_cont8_med cat52_cont8_std cat52_cont9_mean cat52_cont9_med cat52_cont9_std cat52_cont10_mean cat52_cont10_med cat52_cont10_std cat52_cont11_mean cat52_cont11_med cat52_cont11_std cat52_cont12_mean cat52_cont12_med cat52_cont12_std cat52_cont13_mean cat52_cont13_med cat52_cont13_std cat52_cont14_mean cat52_cont14_med cat52_cont14_std cat53_cont1_mean cat53_cont1_med cat53_cont1_std cat53_cont2_mean cat53_cont2_med cat53_cont2_std cat53_cont3_mean cat53_cont3_med cat53_cont3_std cat53_cont4_mean cat53_cont4_med cat53_cont4_std cat53_cont5_mean cat53_cont5_med cat53_cont5_std cat53_cont6_mean cat53_cont6_med cat53_cont6_std cat53_cont7_mean cat53_cont7_med cat53_cont7_std cat53_cont8_mean cat53_cont8_med cat53_cont8_std cat53_cont9_mean cat53_cont9_med cat53_cont9_std cat53_cont10_mean cat53_cont10_med cat53_cont10_std cat53_cont11_mean cat53_cont11_med cat53_cont11_std cat53_cont12_mean cat53_cont12_med cat53_cont12_std cat53_cont13_mean cat53_cont13_med cat53_cont13_std cat53_cont14_mean cat53_cont14_med cat53_cont14_std cat54_cont1_mean cat54_cont1_med cat54_cont1_std cat54_cont2_mean cat54_cont2_med cat54_cont2_std cat54_cont3_mean cat54_cont3_med cat54_cont3_std cat54_cont4_mean cat54_cont4_med cat54_cont4_std cat54_cont5_mean cat54_cont5_med cat54_cont5_std cat54_cont6_mean cat54_cont6_med cat54_cont6_std cat54_cont7_mean cat54_cont7_med cat54_cont7_std cat54_cont8_mean cat54_cont8_med cat54_cont8_std cat54_cont9_mean cat54_cont9_med cat54_cont9_std cat54_cont10_mean cat54_cont10_med cat54_cont10_std cat54_cont11_mean cat54_cont11_med cat54_cont11_std cat54_cont12_mean cat54_cont12_med cat54_cont12_std cat54_cont13_mean cat54_cont13_med cat54_cont13_std cat54_cont14_mean cat54_cont14_med cat54_cont14_std cat55_cont1_mean cat55_cont1_med cat55_cont1_std cat55_cont2_mean cat55_cont2_med cat55_cont2_std cat55_cont3_mean cat55_cont3_med cat55_cont3_std cat55_cont4_mean cat55_cont4_med cat55_cont4_std cat55_cont5_mean cat55_cont5_med cat55_cont5_std cat55_cont6_mean cat55_cont6_med cat55_cont6_std cat55_cont7_mean cat55_cont7_med cat55_cont7_std cat55_cont8_mean cat55_cont8_med cat55_cont8_std cat55_cont9_mean cat55_cont9_med cat55_cont9_std cat55_cont10_mean cat55_cont10_med cat55_cont10_std cat55_cont11_mean cat55_cont11_med cat55_cont11_std cat55_cont12_mean cat55_cont12_med cat55_cont12_std cat55_cont13_mean cat55_cont13_med cat55_cont13_std cat55_cont14_mean cat55_cont14_med cat55_cont14_std cat56_cont1_mean cat56_cont1_med cat56_cont1_std cat56_cont2_mean cat56_cont2_med cat56_cont2_std cat56_cont3_mean cat56_cont3_med cat56_cont3_std cat56_cont4_mean cat56_cont4_med cat56_cont4_std cat56_cont5_mean cat56_cont5_med cat56_cont5_std cat56_cont6_mean cat56_cont6_med cat56_cont6_std cat56_cont7_mean cat56_cont7_med cat56_cont7_std cat56_cont8_mean cat56_cont8_med cat56_cont8_std cat56_cont9_mean cat56_cont9_med cat56_cont9_std cat56_cont10_mean cat56_cont10_med cat56_cont10_std cat56_cont11_mean cat56_cont11_med cat56_cont11_std cat56_cont12_mean cat56_cont12_med cat56_cont12_std cat56_cont13_mean cat56_cont13_med cat56_cont13_std cat56_cont14_mean cat56_cont14_med cat56_cont14_std cat57_cont1_mean cat57_cont1_med cat57_cont1_std cat57_cont2_mean cat57_cont2_med cat57_cont2_std cat57_cont3_mean cat57_cont3_med cat57_cont3_std cat57_cont4_mean cat57_cont4_med cat57_cont4_std cat57_cont5_mean cat57_cont5_med cat57_cont5_std cat57_cont6_mean cat57_cont6_med cat57_cont6_std cat57_cont7_mean cat57_cont7_med cat57_cont7_std cat57_cont8_mean cat57_cont8_med cat57_cont8_std cat57_cont9_mean cat57_cont9_med cat57_cont9_std cat57_cont10_mean cat57_cont10_med cat57_cont10_std cat57_cont11_mean cat57_cont11_med cat57_cont11_std cat57_cont12_mean cat57_cont12_med cat57_cont12_std cat57_cont13_mean cat57_cont13_med cat57_cont13_std cat57_cont14_mean cat57_cont14_med cat57_cont14_std cat58_cont1_mean cat58_cont1_med cat58_cont1_std cat58_cont2_mean cat58_cont2_med cat58_cont2_std cat58_cont3_mean cat58_cont3_med cat58_cont3_std cat58_cont4_mean cat58_cont4_med cat58_cont4_std cat58_cont5_mean cat58_cont5_med cat58_cont5_std cat58_cont6_mean cat58_cont6_med cat58_cont6_std cat58_cont7_mean cat58_cont7_med cat58_cont7_std cat58_cont8_mean cat58_cont8_med cat58_cont8_std cat58_cont9_mean cat58_cont9_med cat58_cont9_std cat58_cont10_mean cat58_cont10_med cat58_cont10_std cat58_cont11_mean cat58_cont11_med cat58_cont11_std cat58_cont12_mean cat58_cont12_med cat58_cont12_std cat58_cont13_mean cat58_cont13_med cat58_cont13_std cat58_cont14_mean cat58_cont14_med cat58_cont14_std cat59_cont1_mean cat59_cont1_med cat59_cont1_std cat59_cont2_mean cat59_cont2_med cat59_cont2_std cat59_cont3_mean cat59_cont3_med cat59_cont3_std cat59_cont4_mean cat59_cont4_med cat59_cont4_std cat59_cont5_mean cat59_cont5_med cat59_cont5_std cat59_cont6_mean cat59_cont6_med cat59_cont6_std cat59_cont7_mean cat59_cont7_med cat59_cont7_std cat59_cont8_mean cat59_cont8_med cat59_cont8_std cat59_cont9_mean cat59_cont9_med cat59_cont9_std cat59_cont10_mean cat59_cont10_med cat59_cont10_std cat59_cont11_mean cat59_cont11_med cat59_cont11_std cat59_cont12_mean cat59_cont12_med cat59_cont12_std cat59_cont13_mean cat59_cont13_med cat59_cont13_std cat59_cont14_mean cat59_cont14_med cat59_cont14_std cat60_cont1_mean cat60_cont1_med cat60_cont1_std cat60_cont2_mean cat60_cont2_med cat60_cont2_std cat60_cont3_mean cat60_cont3_med cat60_cont3_std cat60_cont4_mean cat60_cont4_med cat60_cont4_std cat60_cont5_mean cat60_cont5_med cat60_cont5_std cat60_cont6_mean cat60_cont6_med cat60_cont6_std cat60_cont7_mean cat60_cont7_med cat60_cont7_std cat60_cont8_mean cat60_cont8_med cat60_cont8_std cat60_cont9_mean cat60_cont9_med cat60_cont9_std cat60_cont10_mean cat60_cont10_med cat60_cont10_std cat60_cont11_mean cat60_cont11_med cat60_cont11_std cat60_cont12_mean cat60_cont12_med cat60_cont12_std cat60_cont13_mean cat60_cont13_med cat60_cont13_std cat60_cont14_mean cat60_cont14_med cat60_cont14_std cat61_cont1_mean cat61_cont1_med cat61_cont1_std cat61_cont2_mean cat61_cont2_med cat61_cont2_std cat61_cont3_mean cat61_cont3_med cat61_cont3_std cat61_cont4_mean cat61_cont4_med cat61_cont4_std cat61_cont5_mean cat61_cont5_med cat61_cont5_std cat61_cont6_mean cat61_cont6_med cat61_cont6_std cat61_cont7_mean cat61_cont7_med cat61_cont7_std cat61_cont8_mean cat61_cont8_med cat61_cont8_std cat61_cont9_mean cat61_cont9_med cat61_cont9_std cat61_cont10_mean cat61_cont10_med cat61_cont10_std cat61_cont11_mean cat61_cont11_med cat61_cont11_std cat61_cont12_mean cat61_cont12_med cat61_cont12_std cat61_cont13_mean cat61_cont13_med cat61_cont13_std cat61_cont14_mean cat61_cont14_med cat61_cont14_std cat62_cont1_mean cat62_cont1_med cat62_cont1_std cat62_cont2_mean cat62_cont2_med cat62_cont2_std cat62_cont3_mean cat62_cont3_med cat62_cont3_std cat62_cont4_mean cat62_cont4_med cat62_cont4_std cat62_cont5_mean cat62_cont5_med cat62_cont5_std cat62_cont6_mean cat62_cont6_med cat62_cont6_std cat62_cont7_mean cat62_cont7_med cat62_cont7_std cat62_cont8_mean cat62_cont8_med cat62_cont8_std cat62_cont9_mean cat62_cont9_med cat62_cont9_std cat62_cont10_mean cat62_cont10_med cat62_cont10_std cat62_cont11_mean cat62_cont11_med cat62_cont11_std cat62_cont12_mean cat62_cont12_med cat62_cont12_std cat62_cont13_mean cat62_cont13_med cat62_cont13_std cat62_cont14_mean cat62_cont14_med cat62_cont14_std cat63_cont1_mean cat63_cont1_med cat63_cont1_std cat63_cont2_mean cat63_cont2_med cat63_cont2_std cat63_cont3_mean cat63_cont3_med cat63_cont3_std cat63_cont4_mean cat63_cont4_med cat63_cont4_std cat63_cont5_mean cat63_cont5_med cat63_cont5_std cat63_cont6_mean cat63_cont6_med cat63_cont6_std cat63_cont7_mean cat63_cont7_med cat63_cont7_std cat63_cont8_mean cat63_cont8_med cat63_cont8_std cat63_cont9_mean cat63_cont9_med cat63_cont9_std cat63_cont10_mean cat63_cont10_med cat63_cont10_std cat63_cont11_mean cat63_cont11_med cat63_cont11_std cat63_cont12_mean cat63_cont12_med cat63_cont12_std cat63_cont13_mean cat63_cont13_med cat63_cont13_std cat63_cont14_mean cat63_cont14_med cat63_cont14_std cat64_cont1_mean cat64_cont1_med cat64_cont1_std cat64_cont2_mean cat64_cont2_med cat64_cont2_std cat64_cont3_mean cat64_cont3_med cat64_cont3_std cat64_cont4_mean cat64_cont4_med cat64_cont4_std cat64_cont5_mean cat64_cont5_med cat64_cont5_std cat64_cont6_mean cat64_cont6_med cat64_cont6_std cat64_cont7_mean cat64_cont7_med cat64_cont7_std cat64_cont8_mean cat64_cont8_med cat64_cont8_std cat64_cont9_mean cat64_cont9_med cat64_cont9_std cat64_cont10_mean cat64_cont10_med cat64_cont10_std cat64_cont11_mean cat64_cont11_med cat64_cont11_std cat64_cont12_mean cat64_cont12_med cat64_cont12_std cat64_cont13_mean cat64_cont13_med cat64_cont13_std cat64_cont14_mean cat64_cont14_med cat64_cont14_std cat65_cont1_mean cat65_cont1_med cat65_cont1_std cat65_cont2_mean cat65_cont2_med cat65_cont2_std cat65_cont3_mean cat65_cont3_med cat65_cont3_std cat65_cont4_mean cat65_cont4_med cat65_cont4_std cat65_cont5_mean cat65_cont5_med cat65_cont5_std cat65_cont6_mean cat65_cont6_med cat65_cont6_std cat65_cont7_mean cat65_cont7_med cat65_cont7_std cat65_cont8_mean cat65_cont8_med cat65_cont8_std cat65_cont9_mean cat65_cont9_med cat65_cont9_std cat65_cont10_mean cat65_cont10_med cat65_cont10_std cat65_cont11_mean cat65_cont11_med cat65_cont11_std cat65_cont12_mean cat65_cont12_med cat65_cont12_std cat65_cont13_mean cat65_cont13_med cat65_cont13_std cat65_cont14_mean cat65_cont14_med cat65_cont14_std cat66_cont1_mean cat66_cont1_med cat66_cont1_std cat66_cont2_mean cat66_cont2_med cat66_cont2_std cat66_cont3_mean cat66_cont3_med cat66_cont3_std cat66_cont4_mean cat66_cont4_med cat66_cont4_std cat66_cont5_mean cat66_cont5_med cat66_cont5_std cat66_cont6_mean cat66_cont6_med cat66_cont6_std cat66_cont7_mean cat66_cont7_med cat66_cont7_std cat66_cont8_mean cat66_cont8_med cat66_cont8_std cat66_cont9_mean cat66_cont9_med cat66_cont9_std cat66_cont10_mean cat66_cont10_med cat66_cont10_std cat66_cont11_mean cat66_cont11_med cat66_cont11_std cat66_cont12_mean cat66_cont12_med cat66_cont12_std cat66_cont13_mean cat66_cont13_med cat66_cont13_std cat66_cont14_mean cat66_cont14_med cat66_cont14_std cat67_cont1_mean cat67_cont1_med cat67_cont1_std cat67_cont2_mean cat67_cont2_med cat67_cont2_std cat67_cont3_mean cat67_cont3_med cat67_cont3_std cat67_cont4_mean cat67_cont4_med cat67_cont4_std cat67_cont5_mean cat67_cont5_med cat67_cont5_std cat67_cont6_mean cat67_cont6_med cat67_cont6_std cat67_cont7_mean cat67_cont7_med cat67_cont7_std cat67_cont8_mean cat67_cont8_med cat67_cont8_std cat67_cont9_mean cat67_cont9_med cat67_cont9_std cat67_cont10_mean cat67_cont10_med cat67_cont10_std cat67_cont11_mean cat67_cont11_med cat67_cont11_std cat67_cont12_mean cat67_cont12_med cat67_cont12_std cat67_cont13_mean cat67_cont13_med cat67_cont13_std cat67_cont14_mean cat67_cont14_med cat67_cont14_std cat68_cont1_mean cat68_cont1_med cat68_cont1_std cat68_cont2_mean cat68_cont2_med cat68_cont2_std cat68_cont3_mean cat68_cont3_med cat68_cont3_std cat68_cont4_mean cat68_cont4_med cat68_cont4_std cat68_cont5_mean cat68_cont5_med cat68_cont5_std cat68_cont6_mean cat68_cont6_med cat68_cont6_std cat68_cont7_mean cat68_cont7_med cat68_cont7_std cat68_cont8_mean cat68_cont8_med cat68_cont8_std cat68_cont9_mean cat68_cont9_med cat68_cont9_std cat68_cont10_mean cat68_cont10_med cat68_cont10_std cat68_cont11_mean cat68_cont11_med cat68_cont11_std cat68_cont12_mean cat68_cont12_med cat68_cont12_std cat68_cont13_mean cat68_cont13_med cat68_cont13_std cat68_cont14_mean cat68_cont14_med cat68_cont14_std cat69_cont1_mean cat69_cont1_med cat69_cont1_std cat69_cont2_mean cat69_cont2_med cat69_cont2_std cat69_cont3_mean cat69_cont3_med cat69_cont3_std cat69_cont4_mean cat69_cont4_med cat69_cont4_std cat69_cont5_mean cat69_cont5_med cat69_cont5_std cat69_cont6_mean cat69_cont6_med cat69_cont6_std cat69_cont7_mean cat69_cont7_med cat69_cont7_std cat69_cont8_mean cat69_cont8_med cat69_cont8_std cat69_cont9_mean cat69_cont9_med cat69_cont9_std cat69_cont10_mean cat69_cont10_med cat69_cont10_std cat69_cont11_mean cat69_cont11_med cat69_cont11_std cat69_cont12_mean cat69_cont12_med cat69_cont12_std cat69_cont13_mean cat69_cont13_med cat69_cont13_std cat69_cont14_mean cat69_cont14_med cat69_cont14_std cat70_cont1_mean cat70_cont1_med cat70_cont1_std cat70_cont2_mean cat70_cont2_med cat70_cont2_std cat70_cont3_mean cat70_cont3_med cat70_cont3_std cat70_cont4_mean cat70_cont4_med cat70_cont4_std cat70_cont5_mean cat70_cont5_med cat70_cont5_std cat70_cont6_mean cat70_cont6_med cat70_cont6_std cat70_cont7_mean cat70_cont7_med cat70_cont7_std cat70_cont8_mean cat70_cont8_med cat70_cont8_std cat70_cont9_mean cat70_cont9_med cat70_cont9_std cat70_cont10_mean cat70_cont10_med cat70_cont10_std cat70_cont11_mean cat70_cont11_med cat70_cont11_std cat70_cont12_mean cat70_cont12_med cat70_cont12_std cat70_cont13_mean cat70_cont13_med cat70_cont13_std cat70_cont14_mean cat70_cont14_med cat70_cont14_std cat71_cont1_mean cat71_cont1_med cat71_cont1_std cat71_cont2_mean cat71_cont2_med cat71_cont2_std cat71_cont3_mean cat71_cont3_med cat71_cont3_std cat71_cont4_mean cat71_cont4_med cat71_cont4_std cat71_cont5_mean cat71_cont5_med cat71_cont5_std cat71_cont6_mean cat71_cont6_med cat71_cont6_std cat71_cont7_mean cat71_cont7_med cat71_cont7_std cat71_cont8_mean cat71_cont8_med cat71_cont8_std cat71_cont9_mean cat71_cont9_med cat71_cont9_std cat71_cont10_mean cat71_cont10_med cat71_cont10_std cat71_cont11_mean cat71_cont11_med cat71_cont11_std cat71_cont12_mean cat71_cont12_med cat71_cont12_std cat71_cont13_mean cat71_cont13_med cat71_cont13_std cat71_cont14_mean cat71_cont14_med cat71_cont14_std cat72_cont1_mean cat72_cont1_med cat72_cont1_std cat72_cont2_mean cat72_cont2_med cat72_cont2_std cat72_cont3_mean cat72_cont3_med cat72_cont3_std cat72_cont4_mean cat72_cont4_med cat72_cont4_std cat72_cont5_mean cat72_cont5_med cat72_cont5_std cat72_cont6_mean cat72_cont6_med cat72_cont6_std cat72_cont7_mean cat72_cont7_med cat72_cont7_std cat72_cont8_mean cat72_cont8_med cat72_cont8_std cat72_cont9_mean cat72_cont9_med cat72_cont9_std cat72_cont10_mean cat72_cont10_med cat72_cont10_std cat72_cont11_mean cat72_cont11_med cat72_cont11_std cat72_cont12_mean cat72_cont12_med cat72_cont12_std cat72_cont13_mean cat72_cont13_med cat72_cont13_std cat72_cont14_mean cat72_cont14_med cat72_cont14_std cat73_cont1_mean cat73_cont1_med cat73_cont1_std cat73_cont2_mean cat73_cont2_med cat73_cont2_std cat73_cont3_mean cat73_cont3_med cat73_cont3_std cat73_cont4_mean cat73_cont4_med cat73_cont4_std cat73_cont5_mean cat73_cont5_med cat73_cont5_std cat73_cont6_mean cat73_cont6_med cat73_cont6_std cat73_cont7_mean cat73_cont7_med cat73_cont7_std cat73_cont8_mean cat73_cont8_med cat73_cont8_std cat73_cont9_mean cat73_cont9_med cat73_cont9_std cat73_cont10_mean cat73_cont10_med cat73_cont10_std cat73_cont11_mean cat73_cont11_med cat73_cont11_std cat73_cont12_mean cat73_cont12_med cat73_cont12_std cat73_cont13_mean cat73_cont13_med cat73_cont13_std cat73_cont14_mean cat73_cont14_med cat73_cont14_std cat74_cont1_mean cat74_cont1_med cat74_cont1_std cat74_cont2_mean cat74_cont2_med cat74_cont2_std cat74_cont3_mean cat74_cont3_med cat74_cont3_std cat74_cont4_mean cat74_cont4_med cat74_cont4_std cat74_cont5_mean cat74_cont5_med cat74_cont5_std cat74_cont6_mean cat74_cont6_med cat74_cont6_std cat74_cont7_mean cat74_cont7_med cat74_cont7_std cat74_cont8_mean cat74_cont8_med cat74_cont8_std cat74_cont9_mean cat74_cont9_med cat74_cont9_std cat74_cont10_mean cat74_cont10_med cat74_cont10_std cat74_cont11_mean cat74_cont11_med cat74_cont11_std cat74_cont12_mean cat74_cont12_med cat74_cont12_std cat74_cont13_mean cat74_cont13_med cat74_cont13_std cat74_cont14_mean cat74_cont14_med cat74_cont14_std cat75_cont1_mean cat75_cont1_med cat75_cont1_std cat75_cont2_mean cat75_cont2_med cat75_cont2_std cat75_cont3_mean cat75_cont3_med cat75_cont3_std cat75_cont4_mean cat75_cont4_med cat75_cont4_std cat75_cont5_mean cat75_cont5_med cat75_cont5_std cat75_cont6_mean cat75_cont6_med cat75_cont6_std cat75_cont7_mean cat75_cont7_med cat75_cont7_std cat75_cont8_mean cat75_cont8_med cat75_cont8_std cat75_cont9_mean cat75_cont9_med cat75_cont9_std cat75_cont10_mean cat75_cont10_med cat75_cont10_std cat75_cont11_mean cat75_cont11_med cat75_cont11_std cat75_cont12_mean cat75_cont12_med cat75_cont12_std cat75_cont13_mean cat75_cont13_med cat75_cont13_std cat75_cont14_mean cat75_cont14_med cat75_cont14_std cat76_cont1_mean cat76_cont1_med cat76_cont1_std cat76_cont2_mean cat76_cont2_med cat76_cont2_std cat76_cont3_mean cat76_cont3_med cat76_cont3_std cat76_cont4_mean cat76_cont4_med cat76_cont4_std cat76_cont5_mean cat76_cont5_med cat76_cont5_std cat76_cont6_mean cat76_cont6_med cat76_cont6_std cat76_cont7_mean cat76_cont7_med cat76_cont7_std cat76_cont8_mean cat76_cont8_med cat76_cont8_std cat76_cont9_mean cat76_cont9_med cat76_cont9_std cat76_cont10_mean cat76_cont10_med cat76_cont10_std cat76_cont11_mean cat76_cont11_med cat76_cont11_std cat76_cont12_mean cat76_cont12_med cat76_cont12_std cat76_cont13_mean cat76_cont13_med cat76_cont13_std cat76_cont14_mean cat76_cont14_med cat76_cont14_std cat77_cont1_mean cat77_cont1_med cat77_cont1_std cat77_cont2_mean cat77_cont2_med cat77_cont2_std cat77_cont3_mean cat77_cont3_med cat77_cont3_std cat77_cont4_mean cat77_cont4_med cat77_cont4_std cat77_cont5_mean cat77_cont5_med cat77_cont5_std cat77_cont6_mean cat77_cont6_med cat77_cont6_std cat77_cont7_mean cat77_cont7_med cat77_cont7_std cat77_cont8_mean cat77_cont8_med cat77_cont8_std cat77_cont9_mean cat77_cont9_med cat77_cont9_std cat77_cont10_mean cat77_cont10_med cat77_cont10_std cat77_cont11_mean cat77_cont11_med cat77_cont11_std cat77_cont12_mean cat77_cont12_med cat77_cont12_std cat77_cont13_mean cat77_cont13_med cat77_cont13_std cat77_cont14_mean cat77_cont14_med cat77_cont14_std cat78_cont1_mean cat78_cont1_med cat78_cont1_std cat78_cont2_mean cat78_cont2_med cat78_cont2_std cat78_cont3_mean cat78_cont3_med cat78_cont3_std cat78_cont4_mean cat78_cont4_med cat78_cont4_std cat78_cont5_mean cat78_cont5_med cat78_cont5_std cat78_cont6_mean cat78_cont6_med cat78_cont6_std cat78_cont7_mean cat78_cont7_med cat78_cont7_std cat78_cont8_mean cat78_cont8_med cat78_cont8_std cat78_cont9_mean cat78_cont9_med cat78_cont9_std cat78_cont10_mean cat78_cont10_med cat78_cont10_std cat78_cont11_mean cat78_cont11_med cat78_cont11_std cat78_cont12_mean cat78_cont12_med cat78_cont12_std cat78_cont13_mean cat78_cont13_med cat78_cont13_std cat78_cont14_mean cat78_cont14_med cat78_cont14_std cat79_cont1_mean cat79_cont1_med cat79_cont1_std cat79_cont2_mean cat79_cont2_med cat79_cont2_std cat79_cont3_mean cat79_cont3_med cat79_cont3_std cat79_cont4_mean cat79_cont4_med cat79_cont4_std cat79_cont5_mean cat79_cont5_med cat79_cont5_std cat79_cont6_mean cat79_cont6_med cat79_cont6_std cat79_cont7_mean cat79_cont7_med cat79_cont7_std cat79_cont8_mean cat79_cont8_med cat79_cont8_std cat79_cont9_mean cat79_cont9_med cat79_cont9_std cat79_cont10_mean cat79_cont10_med cat79_cont10_std cat79_cont11_mean cat79_cont11_med cat79_cont11_std cat79_cont12_mean cat79_cont12_med cat79_cont12_std cat79_cont13_mean cat79_cont13_med cat79_cont13_std cat79_cont14_mean cat79_cont14_med cat79_cont14_std cat80_cont1_mean cat80_cont1_med cat80_cont1_std cat80_cont2_mean cat80_cont2_med cat80_cont2_std cat80_cont3_mean cat80_cont3_med cat80_cont3_std cat80_cont4_mean cat80_cont4_med cat80_cont4_std cat80_cont5_mean cat80_cont5_med cat80_cont5_std cat80_cont6_mean cat80_cont6_med cat80_cont6_std cat80_cont7_mean cat80_cont7_med cat80_cont7_std cat80_cont8_mean cat80_cont8_med cat80_cont8_std cat80_cont9_mean cat80_cont9_med cat80_cont9_std cat80_cont10_mean cat80_cont10_med cat80_cont10_std cat80_cont11_mean cat80_cont11_med cat80_cont11_std cat80_cont12_mean cat80_cont12_med cat80_cont12_std cat80_cont13_mean cat80_cont13_med cat80_cont13_std cat80_cont14_mean cat80_cont14_med cat80_cont14_std cat81_cont1_mean cat81_cont1_med cat81_cont1_std cat81_cont2_mean cat81_cont2_med cat81_cont2_std cat81_cont3_mean cat81_cont3_med cat81_cont3_std cat81_cont4_mean cat81_cont4_med cat81_cont4_std cat81_cont5_mean cat81_cont5_med cat81_cont5_std cat81_cont6_mean cat81_cont6_med cat81_cont6_std cat81_cont7_mean cat81_cont7_med cat81_cont7_std cat81_cont8_mean cat81_cont8_med cat81_cont8_std cat81_cont9_mean cat81_cont9_med cat81_cont9_std cat81_cont10_mean cat81_cont10_med cat81_cont10_std cat81_cont11_mean cat81_cont11_med cat81_cont11_std cat81_cont12_mean cat81_cont12_med cat81_cont12_std cat81_cont13_mean cat81_cont13_med cat81_cont13_std cat81_cont14_mean cat81_cont14_med cat81_cont14_std cat82_cont1_mean cat82_cont1_med cat82_cont1_std cat82_cont2_mean cat82_cont2_med cat82_cont2_std cat82_cont3_mean cat82_cont3_med cat82_cont3_std cat82_cont4_mean cat82_cont4_med cat82_cont4_std cat82_cont5_mean cat82_cont5_med cat82_cont5_std cat82_cont6_mean cat82_cont6_med cat82_cont6_std cat82_cont7_mean cat82_cont7_med cat82_cont7_std cat82_cont8_mean cat82_cont8_med cat82_cont8_std cat82_cont9_mean cat82_cont9_med cat82_cont9_std cat82_cont10_mean cat82_cont10_med cat82_cont10_std cat82_cont11_mean cat82_cont11_med cat82_cont11_std cat82_cont12_mean cat82_cont12_med cat82_cont12_std cat82_cont13_mean cat82_cont13_med cat82_cont13_std cat82_cont14_mean cat82_cont14_med cat82_cont14_std cat83_cont1_mean cat83_cont1_med cat83_cont1_std cat83_cont2_mean cat83_cont2_med cat83_cont2_std cat83_cont3_mean cat83_cont3_med cat83_cont3_std cat83_cont4_mean cat83_cont4_med cat83_cont4_std cat83_cont5_mean cat83_cont5_med cat83_cont5_std cat83_cont6_mean cat83_cont6_med cat83_cont6_std cat83_cont7_mean cat83_cont7_med cat83_cont7_std cat83_cont8_mean cat83_cont8_med cat83_cont8_std cat83_cont9_mean cat83_cont9_med cat83_cont9_std cat83_cont10_mean cat83_cont10_med cat83_cont10_std cat83_cont11_mean cat83_cont11_med cat83_cont11_std cat83_cont12_mean cat83_cont12_med cat83_cont12_std cat83_cont13_mean cat83_cont13_med cat83_cont13_std cat83_cont14_mean cat83_cont14_med cat83_cont14_std cat84_cont1_mean cat84_cont1_med cat84_cont1_std cat84_cont2_mean cat84_cont2_med cat84_cont2_std cat84_cont3_mean cat84_cont3_med cat84_cont3_std cat84_cont4_mean cat84_cont4_med cat84_cont4_std cat84_cont5_mean cat84_cont5_med cat84_cont5_std cat84_cont6_mean cat84_cont6_med cat84_cont6_std cat84_cont7_mean cat84_cont7_med cat84_cont7_std cat84_cont8_mean cat84_cont8_med cat84_cont8_std cat84_cont9_mean cat84_cont9_med cat84_cont9_std cat84_cont10_mean cat84_cont10_med cat84_cont10_std cat84_cont11_mean cat84_cont11_med cat84_cont11_std cat84_cont12_mean cat84_cont12_med cat84_cont12_std cat84_cont13_mean cat84_cont13_med cat84_cont13_std cat84_cont14_mean cat84_cont14_med cat84_cont14_std cat85_cont1_mean cat85_cont1_med cat85_cont1_std cat85_cont2_mean cat85_cont2_med cat85_cont2_std cat85_cont3_mean cat85_cont3_med cat85_cont3_std cat85_cont4_mean cat85_cont4_med cat85_cont4_std cat85_cont5_mean cat85_cont5_med cat85_cont5_std cat85_cont6_mean cat85_cont6_med cat85_cont6_std cat85_cont7_mean cat85_cont7_med cat85_cont7_std cat85_cont8_mean cat85_cont8_med cat85_cont8_std cat85_cont9_mean cat85_cont9_med cat85_cont9_std cat85_cont10_mean cat85_cont10_med cat85_cont10_std cat85_cont11_mean cat85_cont11_med cat85_cont11_std cat85_cont12_mean cat85_cont12_med cat85_cont12_std cat85_cont13_mean cat85_cont13_med cat85_cont13_std cat85_cont14_mean cat85_cont14_med cat85_cont14_std cat86_cont1_mean cat86_cont1_med cat86_cont1_std cat86_cont2_mean cat86_cont2_med cat86_cont2_std cat86_cont3_mean cat86_cont3_med cat86_cont3_std cat86_cont4_mean cat86_cont4_med cat86_cont4_std cat86_cont5_mean cat86_cont5_med cat86_cont5_std cat86_cont6_mean cat86_cont6_med cat86_cont6_std cat86_cont7_mean cat86_cont7_med cat86_cont7_std cat86_cont8_mean cat86_cont8_med cat86_cont8_std cat86_cont9_mean cat86_cont9_med cat86_cont9_std cat86_cont10_mean cat86_cont10_med cat86_cont10_std cat86_cont11_mean cat86_cont11_med cat86_cont11_std cat86_cont12_mean cat86_cont12_med cat86_cont12_std cat86_cont13_mean cat86_cont13_med cat86_cont13_std cat86_cont14_mean cat86_cont14_med cat86_cont14_std cat87_cont1_mean cat87_cont1_med cat87_cont1_std cat87_cont2_mean cat87_cont2_med cat87_cont2_std cat87_cont3_mean cat87_cont3_med cat87_cont3_std cat87_cont4_mean cat87_cont4_med cat87_cont4_std cat87_cont5_mean cat87_cont5_med cat87_cont5_std cat87_cont6_mean cat87_cont6_med cat87_cont6_std cat87_cont7_mean cat87_cont7_med cat87_cont7_std cat87_cont8_mean cat87_cont8_med cat87_cont8_std cat87_cont9_mean cat87_cont9_med cat87_cont9_std cat87_cont10_mean cat87_cont10_med cat87_cont10_std cat87_cont11_mean cat87_cont11_med cat87_cont11_std cat87_cont12_mean cat87_cont12_med cat87_cont12_std cat87_cont13_mean cat87_cont13_med cat87_cont13_std cat87_cont14_mean cat87_cont14_med cat87_cont14_std cat88_cont1_mean cat88_cont1_med cat88_cont1_std cat88_cont2_mean cat88_cont2_med cat88_cont2_std cat88_cont3_mean cat88_cont3_med cat88_cont3_std cat88_cont4_mean cat88_cont4_med cat88_cont4_std cat88_cont5_mean cat88_cont5_med cat88_cont5_std cat88_cont6_mean cat88_cont6_med cat88_cont6_std cat88_cont7_mean cat88_cont7_med cat88_cont7_std cat88_cont8_mean cat88_cont8_med cat88_cont8_std cat88_cont9_mean cat88_cont9_med cat88_cont9_std cat88_cont10_mean cat88_cont10_med cat88_cont10_std cat88_cont11_mean cat88_cont11_med cat88_cont11_std cat88_cont12_mean cat88_cont12_med cat88_cont12_std cat88_cont13_mean cat88_cont13_med cat88_cont13_std cat88_cont14_mean cat88_cont14_med cat88_cont14_std cat89_cont1_mean cat89_cont1_med cat89_cont1_std cat89_cont2_mean cat89_cont2_med cat89_cont2_std cat89_cont3_mean cat89_cont3_med cat89_cont3_std cat89_cont4_mean cat89_cont4_med cat89_cont4_std cat89_cont5_mean cat89_cont5_med cat89_cont5_std cat89_cont6_mean cat89_cont6_med cat89_cont6_std cat89_cont7_mean cat89_cont7_med cat89_cont7_std cat89_cont8_mean cat89_cont8_med cat89_cont8_std cat89_cont9_mean cat89_cont9_med cat89_cont9_std cat89_cont10_mean cat89_cont10_med cat89_cont10_std cat89_cont11_mean cat89_cont11_med cat89_cont11_std cat89_cont12_mean cat89_cont12_med cat89_cont12_std cat89_cont13_mean cat89_cont13_med cat89_cont13_std cat89_cont14_mean cat89_cont14_med cat89_cont14_std cat90_cont1_mean cat90_cont1_med cat90_cont1_std cat90_cont2_mean cat90_cont2_med cat90_cont2_std cat90_cont3_mean cat90_cont3_med cat90_cont3_std cat90_cont4_mean cat90_cont4_med cat90_cont4_std cat90_cont5_mean cat90_cont5_med cat90_cont5_std cat90_cont6_mean cat90_cont6_med cat90_cont6_std cat90_cont7_mean cat90_cont7_med cat90_cont7_std cat90_cont8_mean cat90_cont8_med cat90_cont8_std cat90_cont9_mean cat90_cont9_med cat90_cont9_std cat90_cont10_mean cat90_cont10_med cat90_cont10_std cat90_cont11_mean cat90_cont11_med cat90_cont11_std cat90_cont12_mean cat90_cont12_med cat90_cont12_std cat90_cont13_mean cat90_cont13_med cat90_cont13_std cat90_cont14_mean cat90_cont14_med cat90_cont14_std cat91_cont1_mean cat91_cont1_med cat91_cont1_std cat91_cont2_mean cat91_cont2_med cat91_cont2_std cat91_cont3_mean cat91_cont3_med cat91_cont3_std cat91_cont4_mean cat91_cont4_med cat91_cont4_std cat91_cont5_mean cat91_cont5_med cat91_cont5_std cat91_cont6_mean cat91_cont6_med cat91_cont6_std cat91_cont7_mean cat91_cont7_med cat91_cont7_std cat91_cont8_mean cat91_cont8_med cat91_cont8_std cat91_cont9_mean cat91_cont9_med cat91_cont9_std cat91_cont10_mean cat91_cont10_med cat91_cont10_std cat91_cont11_mean cat91_cont11_med cat91_cont11_std cat91_cont12_mean cat91_cont12_med cat91_cont12_std cat91_cont13_mean cat91_cont13_med cat91_cont13_std cat91_cont14_mean cat91_cont14_med cat91_cont14_std cat92_cont1_mean cat92_cont1_med cat92_cont1_std cat92_cont2_mean cat92_cont2_med cat92_cont2_std cat92_cont3_mean cat92_cont3_med cat92_cont3_std cat92_cont4_mean cat92_cont4_med cat92_cont4_std cat92_cont5_mean cat92_cont5_med cat92_cont5_std cat92_cont6_mean cat92_cont6_med cat92_cont6_std cat92_cont7_mean cat92_cont7_med cat92_cont7_std cat92_cont8_mean cat92_cont8_med cat92_cont8_std cat92_cont9_mean cat92_cont9_med cat92_cont9_std cat92_cont10_mean cat92_cont10_med cat92_cont10_std cat92_cont11_mean cat92_cont11_med cat92_cont11_std cat92_cont12_mean cat92_cont12_med cat92_cont12_std cat92_cont13_mean cat92_cont13_med cat92_cont13_std cat92_cont14_mean cat92_cont14_med cat92_cont14_std cat93_cont1_mean cat93_cont1_med cat93_cont1_std cat93_cont2_mean cat93_cont2_med cat93_cont2_std cat93_cont3_mean cat93_cont3_med cat93_cont3_std cat93_cont4_mean cat93_cont4_med cat93_cont4_std cat93_cont5_mean cat93_cont5_med cat93_cont5_std cat93_cont6_mean cat93_cont6_med cat93_cont6_std cat93_cont7_mean cat93_cont7_med cat93_cont7_std cat93_cont8_mean cat93_cont8_med cat93_cont8_std cat93_cont9_mean cat93_cont9_med cat93_cont9_std cat93_cont10_mean cat93_cont10_med cat93_cont10_std cat93_cont11_mean cat93_cont11_med cat93_cont11_std cat93_cont12_mean cat93_cont12_med cat93_cont12_std cat93_cont13_mean cat93_cont13_med cat93_cont13_std cat93_cont14_mean cat93_cont14_med cat93_cont14_std cat94_cont1_mean cat94_cont1_med cat94_cont1_std cat94_cont2_mean cat94_cont2_med cat94_cont2_std cat94_cont3_mean cat94_cont3_med cat94_cont3_std cat94_cont4_mean cat94_cont4_med cat94_cont4_std cat94_cont5_mean cat94_cont5_med cat94_cont5_std cat94_cont6_mean cat94_cont6_med cat94_cont6_std cat94_cont7_mean cat94_cont7_med cat94_cont7_std cat94_cont8_mean cat94_cont8_med cat94_cont8_std cat94_cont9_mean cat94_cont9_med cat94_cont9_std cat94_cont10_mean cat94_cont10_med cat94_cont10_std cat94_cont11_mean cat94_cont11_med cat94_cont11_std cat94_cont12_mean cat94_cont12_med cat94_cont12_std cat94_cont13_mean cat94_cont13_med cat94_cont13_std cat94_cont14_mean cat94_cont14_med cat94_cont14_std cat95_cont1_mean cat95_cont1_med cat95_cont1_std cat95_cont2_mean cat95_cont2_med cat95_cont2_std cat95_cont3_mean cat95_cont3_med cat95_cont3_std cat95_cont4_mean cat95_cont4_med cat95_cont4_std cat95_cont5_mean cat95_cont5_med cat95_cont5_std cat95_cont6_mean cat95_cont6_med cat95_cont6_std cat95_cont7_mean cat95_cont7_med cat95_cont7_std cat95_cont8_mean cat95_cont8_med cat95_cont8_std cat95_cont9_mean cat95_cont9_med cat95_cont9_std cat95_cont10_mean cat95_cont10_med cat95_cont10_std cat95_cont11_mean cat95_cont11_med cat95_cont11_std cat95_cont12_mean cat95_cont12_med cat95_cont12_std cat95_cont13_mean cat95_cont13_med cat95_cont13_std cat95_cont14_mean cat95_cont14_med cat95_cont14_std cat96_cont1_mean cat96_cont1_med cat96_cont1_std cat96_cont2_mean cat96_cont2_med cat96_cont2_std cat96_cont3_mean cat96_cont3_med cat96_cont3_std cat96_cont4_mean cat96_cont4_med cat96_cont4_std cat96_cont5_mean cat96_cont5_med cat96_cont5_std cat96_cont6_mean cat96_cont6_med cat96_cont6_std cat96_cont7_mean cat96_cont7_med cat96_cont7_std cat96_cont8_mean cat96_cont8_med cat96_cont8_std cat96_cont9_mean cat96_cont9_med cat96_cont9_std cat96_cont10_mean cat96_cont10_med cat96_cont10_std cat96_cont11_mean cat96_cont11_med cat96_cont11_std cat96_cont12_mean cat96_cont12_med cat96_cont12_std cat96_cont13_mean cat96_cont13_med cat96_cont13_std cat96_cont14_mean cat96_cont14_med cat96_cont14_std cat97_cont1_mean cat97_cont1_med cat97_cont1_std cat97_cont2_mean cat97_cont2_med cat97_cont2_std cat97_cont3_mean cat97_cont3_med cat97_cont3_std cat97_cont4_mean cat97_cont4_med cat97_cont4_std cat97_cont5_mean cat97_cont5_med cat97_cont5_std cat97_cont6_mean cat97_cont6_med cat97_cont6_std cat97_cont7_mean cat97_cont7_med cat97_cont7_std cat97_cont8_mean cat97_cont8_med cat97_cont8_std cat97_cont9_mean cat97_cont9_med cat97_cont9_std cat97_cont10_mean cat97_cont10_med cat97_cont10_std cat97_cont11_mean cat97_cont11_med cat97_cont11_std cat97_cont12_mean cat97_cont12_med cat97_cont12_std cat97_cont13_mean cat97_cont13_med cat97_cont13_std cat97_cont14_mean cat97_cont14_med cat97_cont14_std cat98_cont1_mean cat98_cont1_med cat98_cont1_std cat98_cont2_mean cat98_cont2_med cat98_cont2_std cat98_cont3_mean cat98_cont3_med cat98_cont3_std cat98_cont4_mean cat98_cont4_med cat98_cont4_std cat98_cont5_mean cat98_cont5_med cat98_cont5_std cat98_cont6_mean cat98_cont6_med cat98_cont6_std cat98_cont7_mean cat98_cont7_med cat98_cont7_std cat98_cont8_mean cat98_cont8_med cat98_cont8_std cat98_cont9_mean cat98_cont9_med cat98_cont9_std cat98_cont10_mean cat98_cont10_med cat98_cont10_std cat98_cont11_mean cat98_cont11_med cat98_cont11_std cat98_cont12_mean cat98_cont12_med cat98_cont12_std cat98_cont13_mean cat98_cont13_med cat98_cont13_std cat98_cont14_mean cat98_cont14_med cat98_cont14_std cat99_cont1_mean cat99_cont1_med cat99_cont1_std cat99_cont2_mean cat99_cont2_med cat99_cont2_std cat99_cont3_mean cat99_cont3_med cat99_cont3_std cat99_cont4_mean cat99_cont4_med cat99_cont4_std cat99_cont5_mean cat99_cont5_med cat99_cont5_std cat99_cont6_mean cat99_cont6_med cat99_cont6_std cat99_cont7_mean cat99_cont7_med cat99_cont7_std cat99_cont8_mean cat99_cont8_med cat99_cont8_std cat99_cont9_mean cat99_cont9_med cat99_cont9_std cat99_cont10_mean cat99_cont10_med cat99_cont10_std cat99_cont11_mean cat99_cont11_med cat99_cont11_std cat99_cont12_mean cat99_cont12_med cat99_cont12_std cat99_cont13_mean cat99_cont13_med cat99_cont13_std cat99_cont14_mean cat99_cont14_med cat99_cont14_std cat100_cont1_mean cat100_cont1_med cat100_cont1_std cat100_cont2_mean cat100_cont2_med cat100_cont2_std cat100_cont3_mean cat100_cont3_med cat100_cont3_std cat100_cont4_mean cat100_cont4_med cat100_cont4_std cat100_cont5_mean cat100_cont5_med cat100_cont5_std cat100_cont6_mean cat100_cont6_med cat100_cont6_std cat100_cont7_mean cat100_cont7_med cat100_cont7_std cat100_cont8_mean cat100_cont8_med cat100_cont8_std cat100_cont9_mean cat100_cont9_med cat100_cont9_std cat100_cont10_mean cat100_cont10_med cat100_cont10_std cat100_cont11_mean cat100_cont11_med cat100_cont11_std cat100_cont12_mean cat100_cont12_med cat100_cont12_std cat100_cont13_mean cat100_cont13_med cat100_cont13_std cat100_cont14_mean cat100_cont14_med cat100_cont14_std cat101_cont1_mean cat101_cont1_med cat101_cont1_std cat101_cont2_mean cat101_cont2_med cat101_cont2_std cat101_cont3_mean cat101_cont3_med cat101_cont3_std cat101_cont4_mean cat101_cont4_med cat101_cont4_std cat101_cont5_mean cat101_cont5_med cat101_cont5_std cat101_cont6_mean cat101_cont6_med cat101_cont6_std cat101_cont7_mean cat101_cont7_med cat101_cont7_std cat101_cont8_mean cat101_cont8_med cat101_cont8_std cat101_cont9_mean cat101_cont9_med cat101_cont9_std cat101_cont10_mean cat101_cont10_med cat101_cont10_std cat101_cont11_mean cat101_cont11_med cat101_cont11_std cat101_cont12_mean cat101_cont12_med cat101_cont12_std cat101_cont13_mean cat101_cont13_med cat101_cont13_std cat101_cont14_mean cat101_cont14_med cat101_cont14_std cat102_cont1_mean cat102_cont1_med cat102_cont1_std cat102_cont2_mean cat102_cont2_med cat102_cont2_std cat102_cont3_mean cat102_cont3_med cat102_cont3_std cat102_cont4_mean cat102_cont4_med cat102_cont4_std cat102_cont5_mean cat102_cont5_med cat102_cont5_std cat102_cont6_mean cat102_cont6_med cat102_cont6_std cat102_cont7_mean cat102_cont7_med cat102_cont7_std cat102_cont8_mean cat102_cont8_med cat102_cont8_std cat102_cont9_mean cat102_cont9_med cat102_cont9_std cat102_cont10_mean cat102_cont10_med cat102_cont10_std cat102_cont11_mean cat102_cont11_med cat102_cont11_std cat102_cont12_mean cat102_cont12_med cat102_cont12_std cat102_cont13_mean cat102_cont13_med cat102_cont13_std cat102_cont14_mean cat102_cont14_med cat102_cont14_std cat103_cont1_mean cat103_cont1_med cat103_cont1_std cat103_cont2_mean cat103_cont2_med cat103_cont2_std cat103_cont3_mean cat103_cont3_med cat103_cont3_std cat103_cont4_mean cat103_cont4_med cat103_cont4_std cat103_cont5_mean cat103_cont5_med cat103_cont5_std cat103_cont6_mean cat103_cont6_med cat103_cont6_std cat103_cont7_mean cat103_cont7_med cat103_cont7_std cat103_cont8_mean cat103_cont8_med cat103_cont8_std cat103_cont9_mean cat103_cont9_med cat103_cont9_std cat103_cont10_mean cat103_cont10_med cat103_cont10_std cat103_cont11_mean cat103_cont11_med cat103_cont11_std cat103_cont12_mean cat103_cont12_med cat103_cont12_std cat103_cont13_mean cat103_cont13_med cat103_cont13_std cat103_cont14_mean cat103_cont14_med cat103_cont14_std cat104_cont1_mean cat104_cont1_med cat104_cont1_std cat104_cont2_mean cat104_cont2_med cat104_cont2_std cat104_cont3_mean cat104_cont3_med cat104_cont3_std cat104_cont4_mean cat104_cont4_med cat104_cont4_std cat104_cont5_mean cat104_cont5_med cat104_cont5_std cat104_cont6_mean cat104_cont6_med cat104_cont6_std cat104_cont7_mean cat104_cont7_med cat104_cont7_std cat104_cont8_mean cat104_cont8_med cat104_cont8_std cat104_cont9_mean cat104_cont9_med cat104_cont9_std cat104_cont10_mean cat104_cont10_med cat104_cont10_std cat104_cont11_mean cat104_cont11_med cat104_cont11_std cat104_cont12_mean cat104_cont12_med cat104_cont12_std cat104_cont13_mean cat104_cont13_med cat104_cont13_std cat104_cont14_mean cat104_cont14_med cat104_cont14_std cat105_cont1_mean cat105_cont1_med cat105_cont1_std cat105_cont2_mean cat105_cont2_med cat105_cont2_std cat105_cont3_mean cat105_cont3_med cat105_cont3_std cat105_cont4_mean cat105_cont4_med cat105_cont4_std cat105_cont5_mean cat105_cont5_med cat105_cont5_std cat105_cont6_mean cat105_cont6_med cat105_cont6_std cat105_cont7_mean cat105_cont7_med cat105_cont7_std cat105_cont8_mean cat105_cont8_med cat105_cont8_std cat105_cont9_mean cat105_cont9_med cat105_cont9_std cat105_cont10_mean cat105_cont10_med cat105_cont10_std cat105_cont11_mean cat105_cont11_med cat105_cont11_std cat105_cont12_mean cat105_cont12_med cat105_cont12_std cat105_cont13_mean cat105_cont13_med cat105_cont13_std cat105_cont14_mean cat105_cont14_med cat105_cont14_std cat106_cont1_mean cat106_cont1_med cat106_cont1_std cat106_cont2_mean cat106_cont2_med cat106_cont2_std cat106_cont3_mean cat106_cont3_med cat106_cont3_std cat106_cont4_mean cat106_cont4_med cat106_cont4_std cat106_cont5_mean cat106_cont5_med cat106_cont5_std cat106_cont6_mean cat106_cont6_med cat106_cont6_std cat106_cont7_mean cat106_cont7_med cat106_cont7_std cat106_cont8_mean cat106_cont8_med cat106_cont8_std cat106_cont9_mean cat106_cont9_med cat106_cont9_std cat106_cont10_mean cat106_cont10_med cat106_cont10_std cat106_cont11_mean cat106_cont11_med cat106_cont11_std cat106_cont12_mean cat106_cont12_med cat106_cont12_std cat106_cont13_mean cat106_cont13_med cat106_cont13_std cat106_cont14_mean cat106_cont14_med cat106_cont14_std cat107_cont1_mean cat107_cont1_med cat107_cont1_std cat107_cont2_mean cat107_cont2_med cat107_cont2_std cat107_cont3_mean cat107_cont3_med cat107_cont3_std cat107_cont4_mean cat107_cont4_med cat107_cont4_std cat107_cont5_mean cat107_cont5_med cat107_cont5_std cat107_cont6_mean cat107_cont6_med cat107_cont6_std cat107_cont7_mean cat107_cont7_med cat107_cont7_std cat107_cont8_mean cat107_cont8_med cat107_cont8_std cat107_cont9_mean cat107_cont9_med cat107_cont9_std cat107_cont10_mean cat107_cont10_med cat107_cont10_std cat107_cont11_mean cat107_cont11_med cat107_cont11_std cat107_cont12_mean cat107_cont12_med cat107_cont12_std cat107_cont13_mean cat107_cont13_med cat107_cont13_std cat107_cont14_mean cat107_cont14_med cat107_cont14_std cat108_cont1_mean cat108_cont1_med cat108_cont1_std cat108_cont2_mean cat108_cont2_med cat108_cont2_std cat108_cont3_mean cat108_cont3_med cat108_cont3_std cat108_cont4_mean cat108_cont4_med cat108_cont4_std cat108_cont5_mean cat108_cont5_med cat108_cont5_std cat108_cont6_mean cat108_cont6_med cat108_cont6_std cat108_cont7_mean cat108_cont7_med cat108_cont7_std cat108_cont8_mean cat108_cont8_med cat108_cont8_std cat108_cont9_mean cat108_cont9_med cat108_cont9_std cat108_cont10_mean cat108_cont10_med cat108_cont10_std cat108_cont11_mean cat108_cont11_med cat108_cont11_std cat108_cont12_mean cat108_cont12_med cat108_cont12_std cat108_cont13_mean cat108_cont13_med cat108_cont13_std cat108_cont14_mean cat108_cont14_med cat108_cont14_std cat109_cont1_mean cat109_cont1_med cat109_cont1_std cat109_cont2_mean cat109_cont2_med cat109_cont2_std cat109_cont3_mean cat109_cont3_med cat109_cont3_std cat109_cont4_mean cat109_cont4_med cat109_cont4_std cat109_cont5_mean cat109_cont5_med cat109_cont5_std cat109_cont6_mean cat109_cont6_med cat109_cont6_std cat109_cont7_mean cat109_cont7_med cat109_cont7_std cat109_cont8_mean cat109_cont8_med cat109_cont8_std cat109_cont9_mean cat109_cont9_med cat109_cont9_std cat109_cont10_mean cat109_cont10_med cat109_cont10_std cat109_cont11_mean cat109_cont11_med cat109_cont11_std cat109_cont12_mean cat109_cont12_med cat109_cont12_std cat109_cont13_mean cat109_cont13_med cat109_cont13_std cat109_cont14_mean cat109_cont14_med cat109_cont14_std cat110_cont1_mean cat110_cont1_med cat110_cont1_std cat110_cont2_mean cat110_cont2_med cat110_cont2_std cat110_cont3_mean cat110_cont3_med cat110_cont3_std cat110_cont4_mean cat110_cont4_med cat110_cont4_std cat110_cont5_mean cat110_cont5_med cat110_cont5_std cat110_cont6_mean cat110_cont6_med cat110_cont6_std cat110_cont7_mean cat110_cont7_med cat110_cont7_std cat110_cont8_mean cat110_cont8_med cat110_cont8_std cat110_cont9_mean cat110_cont9_med cat110_cont9_std cat110_cont10_mean cat110_cont10_med cat110_cont10_std cat110_cont11_mean cat110_cont11_med cat110_cont11_std cat110_cont12_mean cat110_cont12_med cat110_cont12_std cat110_cont13_mean cat110_cont13_med cat110_cont13_std cat110_cont14_mean cat110_cont14_med cat110_cont14_std cat111_cont1_mean cat111_cont1_med cat111_cont1_std cat111_cont2_mean cat111_cont2_med cat111_cont2_std cat111_cont3_mean cat111_cont3_med cat111_cont3_std cat111_cont4_mean cat111_cont4_med cat111_cont4_std cat111_cont5_mean cat111_cont5_med cat111_cont5_std cat111_cont6_mean cat111_cont6_med cat111_cont6_std cat111_cont7_mean cat111_cont7_med cat111_cont7_std cat111_cont8_mean cat111_cont8_med cat111_cont8_std cat111_cont9_mean cat111_cont9_med cat111_cont9_std cat111_cont10_mean cat111_cont10_med cat111_cont10_std cat111_cont11_mean cat111_cont11_med cat111_cont11_std cat111_cont12_mean cat111_cont12_med cat111_cont12_std cat111_cont13_mean cat111_cont13_med cat111_cont13_std cat111_cont14_mean cat111_cont14_med cat111_cont14_std cat112_cont1_mean cat112_cont1_med cat112_cont1_std cat112_cont2_mean cat112_cont2_med cat112_cont2_std cat112_cont3_mean cat112_cont3_med cat112_cont3_std cat112_cont4_mean cat112_cont4_med cat112_cont4_std cat112_cont5_mean cat112_cont5_med cat112_cont5_std cat112_cont6_mean cat112_cont6_med cat112_cont6_std cat112_cont7_mean cat112_cont7_med cat112_cont7_std cat112_cont8_mean cat112_cont8_med cat112_cont8_std cat112_cont9_mean cat112_cont9_med cat112_cont9_std cat112_cont10_mean cat112_cont10_med cat112_cont10_std cat112_cont11_mean cat112_cont11_med cat112_cont11_std cat112_cont12_mean cat112_cont12_med cat112_cont12_std cat112_cont13_mean cat112_cont13_med cat112_cont13_std cat112_cont14_mean cat112_cont14_med cat112_cont14_std cat113_cont1_mean cat113_cont1_med cat113_cont1_std cat113_cont2_mean cat113_cont2_med cat113_cont2_std cat113_cont3_mean cat113_cont3_med cat113_cont3_std cat113_cont4_mean cat113_cont4_med cat113_cont4_std cat113_cont5_mean cat113_cont5_med cat113_cont5_std cat113_cont6_mean cat113_cont6_med cat113_cont6_std cat113_cont7_mean cat113_cont7_med cat113_cont7_std cat113_cont8_mean cat113_cont8_med cat113_cont8_std cat113_cont9_mean cat113_cont9_med cat113_cont9_std cat113_cont10_mean cat113_cont10_med cat113_cont10_std cat113_cont11_mean cat113_cont11_med cat113_cont11_std cat113_cont12_mean cat113_cont12_med cat113_cont12_std cat113_cont13_mean cat113_cont13_med cat113_cont13_std cat113_cont14_mean cat113_cont14_med cat113_cont14_std cat114_cont1_mean cat114_cont1_med cat114_cont1_std cat114_cont2_mean cat114_cont2_med cat114_cont2_std cat114_cont3_mean cat114_cont3_med cat114_cont3_std cat114_cont4_mean cat114_cont4_med cat114_cont4_std cat114_cont5_mean cat114_cont5_med cat114_cont5_std cat114_cont6_mean cat114_cont6_med cat114_cont6_std cat114_cont7_mean cat114_cont7_med cat114_cont7_std cat114_cont8_mean cat114_cont8_med cat114_cont8_std cat114_cont9_mean cat114_cont9_med cat114_cont9_std cat114_cont10_mean cat114_cont10_med cat114_cont10_std cat114_cont11_mean cat114_cont11_med cat114_cont11_std cat114_cont12_mean cat114_cont12_med cat114_cont12_std cat114_cont13_mean cat114_cont13_med cat114_cont13_std cat114_cont14_mean cat114_cont14_med cat114_cont14_std cat115_cont1_mean cat115_cont1_med cat115_cont1_std cat115_cont2_mean cat115_cont2_med cat115_cont2_std cat115_cont3_mean cat115_cont3_med cat115_cont3_std cat115_cont4_mean cat115_cont4_med cat115_cont4_std cat115_cont5_mean cat115_cont5_med cat115_cont5_std cat115_cont6_mean cat115_cont6_med cat115_cont6_std cat115_cont7_mean cat115_cont7_med cat115_cont7_std cat115_cont8_mean cat115_cont8_med cat115_cont8_std cat115_cont9_mean cat115_cont9_med cat115_cont9_std cat115_cont10_mean cat115_cont10_med cat115_cont10_std cat115_cont11_mean cat115_cont11_med cat115_cont11_std cat115_cont12_mean cat115_cont12_med cat115_cont12_std cat115_cont13_mean cat115_cont13_med cat115_cont13_std cat115_cont14_mean cat115_cont14_med cat115_cont14_std cat116_cont1_mean cat116_cont1_med cat116_cont1_std cat116_cont2_mean cat116_cont2_med cat116_cont2_std cat116_cont3_mean cat116_cont3_med cat116_cont3_std cat116_cont4_mean cat116_cont4_med cat116_cont4_std cat116_cont5_mean cat116_cont5_med cat116_cont5_std cat116_cont6_mean cat116_cont6_med cat116_cont6_std cat116_cont7_mean cat116_cont7_med cat116_cont7_std cat116_cont8_mean cat116_cont8_med cat116_cont8_std cat116_cont9_mean cat116_cont9_med cat116_cont9_std cat116_cont10_mean cat116_cont10_med cat116_cont10_std cat116_cont11_mean cat116_cont11_med cat116_cont11_std cat116_cont12_mean cat116_cont12_med cat116_cont12_std cat116_cont13_mean cat116_cont13_med cat116_cont13_std cat116_cont14_mean cat116_cont14_med cat116_cont14_std log_cont1 cont1_rank cont1_cap log_cont2 cont2_rank cont2_cap log_cont3 cont3_rank cont3_cap log_cont4 cont4_rank cont4_cap log_cont5 cont5_rank cont5_cap log_cont6 cont6_rank cont6_cap log_cont7 cont7_rank cont7_cap log_cont8 cont8_rank cont8_cap log_cont9 cont9_rank cont9_cap log_cont10 cont10_rank cont10_cap log_cont11 cont11_rank cont11_cap log_cont12 cont12_rank cont12_cap log_cont13 cont13_rank cont13_cap log_cont14 cont14_rank cont14_cap
